<?xml version="1.0"?>
<opencv_storage>
<cascade>
  <stageType>BOOST</stageType>
  <featureType>HAAR</featureType>
  <height>24</height>
  <width>48</width>
  <stageParams>
    <boostType>GAB</boostType>
    <minHitRate>9.9500000476837158e-01</minHitRate>
    <maxFalseAlarm>5.0000000000000000e-01</maxFalseAlarm>
    <weightTrimRate>9.4999999999999996e-01</weightTrimRate>
    <maxDepth>1</maxDepth>
    <maxWeakCount>100</maxWeakCount></stageParams>
  <featureParams>
    <maxCatCount>0</maxCatCount>
    <featSize>1</featSize>
    <mode>BASIC</mode></featureParams>
  <stageNum>17</stageNum>
  <stages>
    <!-- stage 0 -->
    <_>
      <maxWeakCount>4</maxWeakCount>
      <stageThreshold>-1.1902182102203369e+00</stageThreshold>
      <weakClassifiers>
        <_>
          <internalNodes>
            0 -1 50 2.7411447837948799e-02</internalNodes>
          <leafValues>
            -7.3333334922790527e-01 8.1052631139755249e-01</leafValues></_>
        <_>
          <internalNodes>
            0 -1 6 -8.3181262016296387e-03</internalNodes>
          <leafValues>
            6.8381971120834351e-01 -6.3179427385330200e-01</leafValues></_>
        <_>
          <internalNodes>
            0 -1 49 -9.3195512890815735e-02</internalNodes>
          <leafValues>
            6.5536189079284668e-01 -5.8029919862747192e-01</leafValues></_>
        <_>
          <internalNodes>
            0 -1 46 -8.6377877742052078e-03</internalNodes>
          <leafValues>
            7.5520855188369751e-01 -4.5336198806762695e-01</leafValues></_></weakClassifiers></_>
    <!-- stage 1 -->
    <_>
      <maxWeakCount>5</maxWeakCount>
      <stageThreshold>-1.6441221237182617e+00</stageThreshold>
      <weakClassifiers>
        <_>
          <internalNodes>
            0 -1 31 3.0322548002004623e-02</internalNodes>
          <leafValues>
            -7.0354908704757690e-01 6.4683300256729126e-01</leafValues></_>
        <_>
          <internalNodes>
            0 -1 98 1.5577952377498150e-02</internalNodes>
          <leafValues>
            -5.9663689136505127e-01 5.8917653560638428e-01</leafValues></_>
        <_>
          <internalNodes>
            0 -1 42 -3.7075413856655359e-03</internalNodes>
          <leafValues>
            7.6325315237045288e-01 -3.8646543025970459e-01</leafValues></_>
        <_>
          <internalNodes>
            0 -1 25 -3.9572156965732574e-02</internalNodes>
          <leafValues>
            5.2709418535232544e-01 -5.3903341293334961e-01</leafValues></_>
        <_>
          <internalNodes>
            0 -1 4 -6.7641413770616055e-03</internalNodes>
          <leafValues>
            4.1880789399147034e-01 -5.6815594434738159e-01</leafValues></_></weakClassifiers></_>
    <!-- stage 2 -->
    <_>
      <maxWeakCount>6</maxWeakCount>
      <stageThreshold>-8.8987720012664795e-01</stageThreshold>
      <weakClassifiers>
        <_>
          <internalNodes>
            0 -1 88 -8.6268875747919083e-03</internalNodes>
          <leafValues>
            7.6704543828964233e-01 -4.1666665673255920e-01</leafValues></_>
        <_>
          <internalNodes>
            0 -1 54 -5.2904345095157623e-02</internalNodes>
          <leafValues>
            6.7890655994415283e-01 -4.1846939921379089e-01</leafValues></_>
        <_>
          <internalNodes>
            0 -1 5 -1.4851609244942665e-02</internalNodes>
          <leafValues>
            4.7641745209693909e-01 -6.2175673246383667e-01</leafValues></_>
        <_>
          <internalNodes>
            0 -1 77 6.0719456523656845e-03</internalNodes>
          <leafValues>
            -7.0767056941986084e-01 3.2701647281646729e-01</leafValues></_>
        <_>
          <internalNodes>
            0 -1 16 -3.9840415120124817e-02</internalNodes>
          <leafValues>
            5.5701595544815063e-01 -4.5417144894599915e-01</leafValues></_>
        <_>
          <internalNodes>
            0 -1 48 1.6721282899379730e-01</internalNodes>
          <leafValues>
            -3.1701683998107910e-01 8.0453783273696899e-01</leafValues></_></weakClassifiers></_>
    <!-- stage 3 -->
    <_>
      <maxWeakCount>8</maxWeakCount>
      <stageThreshold>-8.8037985563278198e-01</stageThreshold>
      <weakClassifiers>
        <_>
          <internalNodes>
            0 -1 19 1.6727715265005827e-03</internalNodes>
          <leafValues>
            -4.3371522426605225e-01 6.8123394250869751e-01</leafValues></_>
        <_>
          <internalNodes>
            0 -1 27 -2.4735612794756889e-02</internalNodes>
          <leafValues>
            5.9370303153991699e-01 -4.1531881690025330e-01</leafValues></_>
        <_>
          <internalNodes>
            0 -1 11 -3.3381180837750435e-03</internalNodes>
          <leafValues>
            3.8461834192276001e-01 -6.4982819557189941e-01</leafValues></_>
        <_>
          <internalNodes>
            0 -1 50 3.1641885638237000e-02</internalNodes>
          <leafValues>
            -5.8156603574752808e-01 4.7485005855560303e-01</leafValues></_>
        <_>
          <internalNodes>
            0 -1 99 -1.8543990154284984e-04</internalNodes>
          <leafValues>
            -8.4352439641952515e-01 2.4748468399047852e-01</leafValues></_>
        <_>
          <internalNodes>
            0 -1 84 2.2453716956079006e-03</internalNodes>
          <leafValues>
            -4.1087394952774048e-01 6.4846575260162354e-01</leafValues></_>
        <_>
          <internalNodes>
            0 -1 65 6.6741585731506348e-02</internalNodes>
          <leafValues>
            -3.2113805413246155e-01 6.7657113075256348e-01</leafValues></_>
        <_>
          <internalNodes>
            0 -1 15 -2.3702237010002136e-01</internalNodes>
          <leafValues>
            7.4701255559921265e-01 -3.4609538316726685e-01</leafValues></_></weakClassifiers></_>
    <!-- stage 4 -->
    <_>
      <maxWeakCount>5</maxWeakCount>
      <stageThreshold>-6.4162033796310425e-01</stageThreshold>
      <weakClassifiers>
        <_>
          <internalNodes>
            0 -1 40 -6.3862097449600697e-03</internalNodes>
          <leafValues>
            6.1340206861495972e-01 -3.8888889551162720e-01</leafValues></_>
        <_>
          <internalNodes>
            0 -1 100 1.2384810484945774e-02</internalNodes>
          <leafValues>
            -3.4027963876724243e-01 6.6804790496826172e-01</leafValues></_>
        <_>
          <internalNodes>
            0 -1 23 1.3019739091396332e-01</internalNodes>
          <leafValues>
            -2.9936018586158752e-01 8.7676167488098145e-01</leafValues></_>
        <_>
          <internalNodes>
            0 -1 72 -2.8005521744489670e-04</internalNodes>
          <leafValues>
            -8.9546608924865723e-01 2.7079692482948303e-01</leafValues></_>
        <_>
          <internalNodes>
            0 -1 67 -1.3512116856873035e-03</internalNodes>
          <leafValues>
            -7.8772187232971191e-01 2.7404686808586121e-01</leafValues></_></weakClassifiers></_>
    <!-- stage 5 -->
    <_>
      <maxWeakCount>6</maxWeakCount>
      <stageThreshold>-1.3738161325454712e+00</stageThreshold>
      <weakClassifiers>
        <_>
          <internalNodes>
            0 -1 74 7.2608646005392075e-03</internalNodes>
          <leafValues>
            -3.7404578924179077e-01 7.1014493703842163e-01</leafValues></_>
        <_>
          <internalNodes>
            0 -1 101 2.6761987246572971e-03</internalNodes>
          <leafValues>
            -5.5162018537521362e-01 4.8515284061431885e-01</leafValues></_>
        <_>
          <internalNodes>
            0 -1 43 -1.8801549449563026e-03</internalNodes>
          <leafValues>
            5.8235371112823486e-01 -3.6941239237785339e-01</leafValues></_>
        <_>
          <internalNodes>
            0 -1 56 -2.4920753203332424e-03</internalNodes>
          <leafValues>
            -7.5563430786132812e-01 2.7255773544311523e-01</leafValues></_>
        <_>
          <internalNodes>
            0 -1 52 -3.1341575086116791e-03</internalNodes>
          <leafValues>
            -8.2325714826583862e-01 2.5243169069290161e-01</leafValues></_>
        <_>
          <internalNodes>
            0 -1 8 2.5330195203423500e-03</internalNodes>
          <leafValues>
            -6.1230814456939697e-01 3.1911355257034302e-01</leafValues></_></weakClassifiers></_>
    <!-- stage 6 -->
    <_>
      <maxWeakCount>8</maxWeakCount>
      <stageThreshold>-9.9860227108001709e-01</stageThreshold>
      <weakClassifiers>
        <_>
          <internalNodes>
            0 -1 33 -4.4520962983369827e-03</internalNodes>
          <leafValues>
            5.5353075265884399e-01 -4.3315508961677551e-01</leafValues></_>
        <_>
          <internalNodes>
            0 -1 39 5.5213440209627151e-02</internalNodes>
          <leafValues>
            -4.2807230353355408e-01 5.7225364446640015e-01</leafValues></_>
        <_>
          <internalNodes>
            0 -1 97 1.7798976972699165e-02</internalNodes>
          <leafValues>
            -4.0683230757713318e-01 4.7549226880073547e-01</leafValues></_>
        <_>
          <internalNodes>
            0 -1 24 -1.7881607636809349e-02</internalNodes>
          <leafValues>
            2.5034901499748230e-01 -7.9384064674377441e-01</leafValues></_>
        <_>
          <internalNodes>
            0 -1 35 1.0058658663183451e-03</internalNodes>
          <leafValues>
            -3.1733459234237671e-01 5.5526542663574219e-01</leafValues></_>
        <_>
          <internalNodes>
            0 -1 53 -3.7226425483822823e-03</internalNodes>
          <leafValues>
            -9.6499264240264893e-01 1.6333678364753723e-01</leafValues></_>
        <_>
          <internalNodes>
            0 -1 80 -1.3838572427630424e-02</internalNodes>
          <leafValues>
            7.1148550510406494e-01 -2.8105503320693970e-01</leafValues></_>
        <_>
          <internalNodes>
            0 -1 30 -7.2773788124322891e-03</internalNodes>
          <leafValues>
            6.1602640151977539e-01 -3.5446715354919434e-01</leafValues></_></weakClassifiers></_>
    <!-- stage 7 -->
    <_>
      <maxWeakCount>7</maxWeakCount>
      <stageThreshold>-8.7035524845123291e-01</stageThreshold>
      <weakClassifiers>
        <_>
          <internalNodes>
            0 -1 87 -1.0398313403129578e-02</internalNodes>
          <leafValues>
            4.7069942951202393e-01 -5.2866244316101074e-01</leafValues></_>
        <_>
          <internalNodes>
            0 -1 66 5.1190406084060669e-03</internalNodes>
          <leafValues>
            -4.8866301774978638e-01 4.5098081231117249e-01</leafValues></_>
        <_>
          <internalNodes>
            0 -1 1 -2.2140396758913994e-02</internalNodes>
          <leafValues>
            5.5293190479278564e-01 -3.8321331143379211e-01</leafValues></_>
        <_>
          <internalNodes>
            0 -1 58 -6.1285786796361208e-04</internalNodes>
          <leafValues>
            -8.5311752557754517e-01 2.4445495009422302e-01</leafValues></_>
        <_>
          <internalNodes>
            0 -1 89 1.3608391163870692e-03</internalNodes>
          <leafValues>
            -3.6668702960014343e-01 5.9916484355926514e-01</leafValues></_>
        <_>
          <internalNodes>
            0 -1 12 -1.5288759022951126e-02</internalNodes>
          <leafValues>
            4.4410446286201477e-01 -5.3020429611206055e-01</leafValues></_>
        <_>
          <internalNodes>
            0 -1 68 5.3467246470972896e-04</internalNodes>
          <leafValues>
            2.7528432011604309e-01 -7.1937716007232666e-01</leafValues></_></weakClassifiers></_>
    <!-- stage 8 -->
    <_>
      <maxWeakCount>9</maxWeakCount>
      <stageThreshold>-9.8592895269393921e-01</stageThreshold>
      <weakClassifiers>
        <_>
          <internalNodes>
            0 -1 47 -2.1830847486853600e-02</internalNodes>
          <leafValues>
            8.0363637208938599e-01 -3.0482760071754456e-01</leafValues></_>
        <_>
          <internalNodes>
            0 -1 69 2.5636451318860054e-03</internalNodes>
          <leafValues>
            -4.4267821311950684e-01 4.7481948137283325e-01</leafValues></_>
        <_>
          <internalNodes>
            0 -1 37 -3.9989524520933628e-03</internalNodes>
          <leafValues>
            4.6579426527023315e-01 -4.2119786143302917e-01</leafValues></_>
        <_>
          <internalNodes>
            0 -1 60 -3.2438987400382757e-03</internalNodes>
          <leafValues>
            -8.4303921461105347e-01 2.2557230293750763e-01</leafValues></_>
        <_>
          <internalNodes>
            0 -1 79 4.7351554036140442e-02</internalNodes>
          <leafValues>
            -3.7205463647842407e-01 4.9675542116165161e-01</leafValues></_>
        <_>
          <internalNodes>
            0 -1 96 1.2065662303939462e-03</internalNodes>
          <leafValues>
            -2.4743600189685822e-01 6.9766360521316528e-01</leafValues></_>
        <_>
          <internalNodes>
            0 -1 94 -2.6837480254471302e-03</internalNodes>
          <leafValues>
            7.7575808763504028e-01 -2.3602107167243958e-01</leafValues></_>
        <_>
          <internalNodes>
            0 -1 51 -1.6293672379106283e-03</internalNodes>
          <leafValues>
            -7.6738536357879639e-01 2.7441880106925964e-01</leafValues></_>
        <_>
          <internalNodes>
            0 -1 38 -2.4602059274911880e-03</internalNodes>
          <leafValues>
            6.3499987125396729e-01 -3.0407291650772095e-01</leafValues></_></weakClassifiers></_>
    <!-- stage 9 -->
    <_>
      <maxWeakCount>7</maxWeakCount>
      <stageThreshold>-9.0217471122741699e-01</stageThreshold>
      <weakClassifiers>
        <_>
          <internalNodes>
            0 -1 92 1.2961877509951591e-03</internalNodes>
          <leafValues>
            -3.6858475208282471e-01 6.6386556625366211e-01</leafValues></_>
        <_>
          <internalNodes>
            0 -1 22 7.7529307454824448e-03</internalNodes>
          <leafValues>
            -2.3530273139476776e-01 8.2819288969039917e-01</leafValues></_>
        <_>
          <internalNodes>
            0 -1 83 1.9428397063165903e-03</internalNodes>
          <leafValues>
            -2.5785657763481140e-01 7.3528563976287842e-01</leafValues></_>
        <_>
          <internalNodes>
            0 -1 62 -1.1797496117651463e-03</internalNodes>
          <leafValues>
            -7.8843677043914795e-01 3.2195216417312622e-01</leafValues></_>
        <_>
          <internalNodes>
            0 -1 7 -3.4875854849815369e-02</internalNodes>
          <leafValues>
            5.3560823202133179e-01 -4.0650549530982971e-01</leafValues></_>
        <_>
          <internalNodes>
            0 -1 82 3.6491222679615021e-02</internalNodes>
          <leafValues>
            -4.2039981484413147e-01 5.4257827997207642e-01</leafValues></_>
        <_>
          <internalNodes>
            0 -1 73 -4.4204471632838249e-03</internalNodes>
          <leafValues>
            5.3287428617477417e-01 -3.6034443974494934e-01</leafValues></_></weakClassifiers></_>
    <!-- stage 10 -->
    <_>
      <maxWeakCount>6</maxWeakCount>
      <stageThreshold>-9.2779290676116943e-01</stageThreshold>
      <weakClassifiers>
        <_>
          <internalNodes>
            0 -1 10 -2.7758483774960041e-03</internalNodes>
          <leafValues>
            5.7455265522003174e-01 -5.8148890733718872e-01</leafValues></_>
        <_>
          <internalNodes>
            0 -1 55 -8.2732019945979118e-03</internalNodes>
          <leafValues>
            6.1315679550170898e-01 -4.1798800230026245e-01</leafValues></_>
        <_>
          <internalNodes>
            0 -1 3 -6.2464210204780102e-03</internalNodes>
          <leafValues>
            8.1127405166625977e-01 -2.7070584893226624e-01</leafValues></_>
        <_>
          <internalNodes>
            0 -1 26 3.6109790671616793e-03</internalNodes>
          <leafValues>
            -3.6857682466506958e-01 6.2724697589874268e-01</leafValues></_>
        <_>
          <internalNodes>
            0 -1 81 3.4825461916625500e-03</internalNodes>
          <leafValues>
            -5.3385049104690552e-01 4.2757886648178101e-01</leafValues></_>
        <_>
          <internalNodes>
            0 -1 71 3.6110953078605235e-04</internalNodes>
          <leafValues>
            3.5056972503662109e-01 -7.1243596076965332e-01</leafValues></_></weakClassifiers></_>
    <!-- stage 11 -->
    <_>
      <maxWeakCount>7</maxWeakCount>
      <stageThreshold>-1.6703429222106934e+00</stageThreshold>
      <weakClassifiers>
        <_>
          <internalNodes>
            0 -1 32 -5.8240052312612534e-03</internalNodes>
          <leafValues>
            7.2157770395278931e-01 -5.4657292366027832e-01</leafValues></_>
        <_>
          <internalNodes>
            0 -1 13 -1.4673223719000816e-02</internalNodes>
          <leafValues>
            7.5437575578689575e-01 -3.1284251809120178e-01</leafValues></_>
        <_>
          <internalNodes>
            0 -1 75 2.6749528478831053e-04</internalNodes>
          <leafValues>
            3.4440684318542480e-01 -7.6018333435058594e-01</leafValues></_>
        <_>
          <internalNodes>
            0 -1 28 -6.7515233531594276e-03</internalNodes>
          <leafValues>
            9.0519732236862183e-01 -3.2602769136428833e-01</leafValues></_>
        <_>
          <internalNodes>
            0 -1 44 -2.6795794256031513e-03</internalNodes>
          <leafValues>
            7.0244163274765015e-01 -3.0229055881500244e-01</leafValues></_>
        <_>
          <internalNodes>
            0 -1 90 2.0214049145579338e-03</internalNodes>
          <leafValues>
            -2.3625414073467255e-01 8.8070631027221680e-01</leafValues></_>
        <_>
          <internalNodes>
            0 -1 0 -2.4605493992567062e-02</internalNodes>
          <leafValues>
            5.5809247493743896e-01 -4.1739669442176819e-01</leafValues></_></weakClassifiers></_>
    <!-- stage 12 -->
    <_>
      <maxWeakCount>7</maxWeakCount>
      <stageThreshold>-7.8391551971435547e-01</stageThreshold>
      <weakClassifiers>
        <_>
          <internalNodes>
            0 -1 91 -8.5268551483750343e-03</internalNodes>
          <leafValues>
            6.9066667556762695e-01 -4.1440001130104065e-01</leafValues></_>
        <_>
          <internalNodes>
            0 -1 41 8.4091225289739668e-05</internalNodes>
          <leafValues>
            -3.5665619373321533e-01 5.4147380590438843e-01</leafValues></_>
        <_>
          <internalNodes>
            0 -1 18 -1.3636991381645203e-01</internalNodes>
          <leafValues>
            3.6370751261711121e-01 -5.5451124906539917e-01</leafValues></_>
        <_>
          <internalNodes>
            0 -1 57 9.8659349605441093e-03</internalNodes>
          <leafValues>
            -3.3484092354774475e-01 6.1113357543945312e-01</leafValues></_>
        <_>
          <internalNodes>
            0 -1 102 -1.5818524843780324e-05</internalNodes>
          <leafValues>
            -6.9844776391983032e-01 3.0810326337814331e-01</leafValues></_>
        <_>
          <internalNodes>
            0 -1 64 4.3938017915934324e-04</internalNodes>
          <leafValues>
            1.9522905349731445e-01 -8.3768600225448608e-01</leafValues></_>
        <_>
          <internalNodes>
            0 -1 45 3.6579696461558342e-03</internalNodes>
          <leafValues>
            -4.1613769531250000e-01 4.8158159852027893e-01</leafValues></_></weakClassifiers></_>
    <!-- stage 13 -->
    <_>
      <maxWeakCount>8</maxWeakCount>
      <stageThreshold>-7.1696716547012329e-01</stageThreshold>
      <weakClassifiers>
        <_>
          <internalNodes>
            0 -1 63 -2.1111316978931427e-02</internalNodes>
          <leafValues>
            3.0790960788726807e-01 -7.4657535552978516e-01</leafValues></_>
        <_>
          <internalNodes>
            0 -1 76 7.0070568472146988e-03</internalNodes>
          <leafValues>
            -3.5226029157638550e-01 7.2103220224380493e-01</leafValues></_>
        <_>
          <internalNodes>
            0 -1 17 -2.6060440577566624e-03</internalNodes>
          <leafValues>
            8.0221182107925415e-01 -2.4328905344009399e-01</leafValues></_>
        <_>
          <internalNodes>
            0 -1 61 -2.9879869893193245e-02</internalNodes>
          <leafValues>
            8.2787734270095825e-01 -2.4442943930625916e-01</leafValues></_>
        <_>
          <internalNodes>
            0 -1 59 3.3650762634351850e-04</internalNodes>
          <leafValues>
            3.9653322100639343e-01 -5.4977077245712280e-01</leafValues></_>
        <_>
          <internalNodes>
            0 -1 36 1.6365929041057825e-03</internalNodes>
          <leafValues>
            -2.8014370799064636e-01 7.0762228965759277e-01</leafValues></_>
        <_>
          <internalNodes>
            0 -1 103 2.7134246192872524e-03</internalNodes>
          <leafValues>
            -3.6407941579818726e-01 5.6500154733657837e-01</leafValues></_>
        <_>
          <internalNodes>
            0 -1 20 8.9516281150281429e-04</internalNodes>
          <leafValues>
            2.5111219286918640e-01 -8.6628901958465576e-01</leafValues></_></weakClassifiers></_>
    <!-- stage 14 -->
    <_>
      <maxWeakCount>7</maxWeakCount>
      <stageThreshold>-5.7540726661682129e-01</stageThreshold>
      <weakClassifiers>
        <_>
          <internalNodes>
            0 -1 29 -3.4740483388304710e-03</internalNodes>
          <leafValues>
            5.3386455774307251e-01 -5.3815263509750366e-01</leafValues></_>
        <_>
          <internalNodes>
            0 -1 9 1.1537064565345645e-03</internalNodes>
          <leafValues>
            -3.3996930718421936e-01 8.7634414434432983e-01</leafValues></_>
        <_>
          <internalNodes>
            0 -1 70 1.5150709077715874e-03</internalNodes>
          <leafValues>
            3.9777511358261108e-01 -7.8844547271728516e-01</leafValues></_>
        <_>
          <internalNodes>
            0 -1 86 2.8843051404692233e-04</internalNodes>
          <leafValues>
            2.5104287266731262e-01 -8.2553803920745850e-01</leafValues></_>
        <_>
          <internalNodes>
            0 -1 95 1.3963840901851654e-03</internalNodes>
          <leafValues>
            -3.2472792267799377e-01 8.8483649492263794e-01</leafValues></_>
        <_>
          <internalNodes>
            0 -1 93 -3.9658676832914352e-03</internalNodes>
          <leafValues>
            7.5190472602844238e-01 -3.3795583248138428e-01</leafValues></_>
        <_>
          <internalNodes>
            0 -1 21 -3.6309916526079178e-02</internalNodes>
          <leafValues>
            4.3078386783599854e-01 -6.7293596267700195e-01</leafValues></_></weakClassifiers></_>
    <!-- stage 15 -->
    <_>
      <maxWeakCount>4</maxWeakCount>
      <stageThreshold>-5.5287694931030273e-01</stageThreshold>
      <weakClassifiers>
        <_>
          <internalNodes>
            0 -1 85 -1.4650024240836501e-05</internalNodes>
          <leafValues>
            1. -6.1030596494674683e-01</leafValues></_>
        <_>
          <internalNodes>
            0 -1 34 2.5172007735818624e-04</internalNodes>
          <leafValues>
            -3.8972678780555725e-01 1.</leafValues></_>
        <_>
          <internalNodes>
            0 -1 78 3.4870840609073639e-02</internalNodes>
          <leafValues>
            -4.0653035044670105e-01 9.0165150165557861e-01</leafValues></_>
        <_>
          <internalNodes>
            0 -1 2 -1.5734452754259109e-02</internalNodes>
          <leafValues>
            8.9800000190734863e-01 -4.5449572801589966e-01</leafValues></_></weakClassifiers></_>
    <!-- stage 16 -->
    <_>
      <maxWeakCount>1</maxWeakCount>
      <stageThreshold>1.</stageThreshold>
      <weakClassifiers>
        <_>
          <internalNodes>
            0 -1 14 1.5932725369930267e-01</internalNodes>
          <leafValues>
            1. -1.</leafValues></_></weakClassifiers></_></stages>
  <features>
    <_>
      <rects>
        <_>
          0 5 14 18 -1.</_>
        <_>
          0 5 7 9 2.</_>
        <_>
          7 14 7 9 2.</_></rects>
      <tilted>0</tilted></_>
    <_>
      <rects>
        <_>
          0 8 10 14 -1.</_>
        <_>
          0 8 5 7 2.</_>
        <_>
          5 15 5 7 2.</_></rects>
      <tilted>0</tilted></_>
    <_>
      <rects>
        <_>
          0 10 42 12 -1.</_>
        <_>
          0 10 21 6 2.</_>
        <_>
          21 16 21 6 2.</_></rects>
      <tilted>0</tilted></_>
    <_>
      <rects>
        <_>
          0 16 12 2 -1.</_>
        <_>
          4 16 4 2 3.</_></rects>
      <tilted>0</tilted></_>
    <_>
      <rects>
        <_>
          0 16 8 6 -1.</_>
        <_>
          4 16 4 6 2.</_></rects>
      <tilted>0</tilted></_>
    <_>
      <rects>
        <_>
          0 16 16 7 -1.</_>
        <_>
          8 16 8 7 2.</_></rects>
      <tilted>0</tilted></_>
    <_>
      <rects>
        <_>
          0 17 10 5 -1.</_>
        <_>
          5 17 5 5 2.</_></rects>
      <tilted>0</tilted></_>
    <_>
      <rects>
        <_>
          0 17 24 6 -1.</_>
        <_>
          12 17 12 6 2.</_></rects>
      <tilted>0</tilted></_>
    <_>
      <rects>
        <_>
          0 20 12 4 -1.</_>
        <_>
          0 20 6 2 2.</_>
        <_>
          6 22 6 2 2.</_></rects>
      <tilted>0</tilted></_>
    <_>
      <rects>
        <_>
          1 15 12 2 -1.</_>
        <_>
          1 15 6 1 2.</_>
        <_>
          7 16 6 1 2.</_></rects>
      <tilted>0</tilted></_>
    <_>
      <rects>
        <_>
          1 18 8 2 -1.</_>
        <_>
          5 18 4 2 2.</_></rects>
      <tilted>0</tilted></_>
    <_>
      <rects>
        <_>
          1 18 8 4 -1.</_>
        <_>
          5 18 4 4 2.</_></rects>
      <tilted>0</tilted></_>
    <_>
      <rects>
        <_>
          1 18 36 4 -1.</_>
        <_>
          19 18 18 4 2.</_></rects>
      <tilted>0</tilted></_>
    <_>
      <rects>
        <_>
          2 6 30 6 -1.</_>
        <_>
          2 6 15 3 2.</_>
        <_>
          17 9 15 3 2.</_></rects>
      <tilted>0</tilted></_>
    <_>
      <rects>
        <_>
          3 4 39 7 -1.</_>
        <_>
          16 4 13 7 3.</_></rects>
      <tilted>0</tilted></_>
    <_>
      <rects>
        <_>
          3 8 45 15 -1.</_>
        <_>
          3 13 45 5 3.</_></rects>
      <tilted>0</tilted></_>
    <_>
      <rects>
        <_>
          3 10 13 12 -1.</_>
        <_>
          3 14 13 4 3.</_></rects>
      <tilted>0</tilted></_>
    <_>
      <rects>
        <_>
          3 11 2 11 -1.</_>
        <_>
          4 11 1 11 2.</_></rects>
      <tilted>0</tilted></_>
    <_>
      <rects>
        <_>
          3 12 41 12 -1.</_>
        <_>
          3 16 41 4 3.</_></rects>
      <tilted>0</tilted></_>
    <_>
      <rects>
        <_>
          4 16 10 2 -1.</_>
        <_>
          4 16 5 1 2.</_>
        <_>
          9 17 5 1 2.</_></rects>
      <tilted>0</tilted></_>
    <_>
      <rects>
        <_>
          5 21 6 2 -1.</_>
        <_>
          8 21 3 2 2.</_></rects>
      <tilted>0</tilted></_>
    <_>
      <rects>
        <_>
          6 12 11 12 -1.</_>
        <_>
          6 16 11 4 3.</_></rects>
      <tilted>0</tilted></_>
    <_>
      <rects>
        <_>
          6 15 8 4 -1.</_>
        <_>
          6 15 4 2 2.</_>
        <_>
          10 17 4 2 2.</_></rects>
      <tilted>0</tilted></_>
    <_>
      <rects>
        <_>
          7 6 19 15 -1.</_>
        <_>
          7 11 19 5 3.</_></rects>
      <tilted>0</tilted></_>
    <_>
      <rects>
        <_>
          7 12 10 12 -1.</_>
        <_>
          7 16 10 4 3.</_></rects>
      <tilted>0</tilted></_>
    <_>
      <rects>
        <_>
          7 12 12 12 -1.</_>
        <_>
          7 16 12 4 3.</_></rects>
      <tilted>0</tilted></_>
    <_>
      <rects>
        <_>
          7 15 6 4 -1.</_>
        <_>
          7 15 3 2 2.</_>
        <_>
          10 17 3 2 2.</_></rects>
      <tilted>0</tilted></_>
    <_>
      <rects>
        <_>
          8 12 32 4 -1.</_>
        <_>
          8 14 32 2 2.</_></rects>
      <tilted>0</tilted></_>
    <_>
      <rects>
        <_>
          8 15 6 7 -1.</_>
        <_>
          10 15 2 7 3.</_></rects>
      <tilted>0</tilted></_>
    <_>
      <rects>
        <_>
          8 16 20 4 -1.</_>
        <_>
          8 16 10 2 2.</_>
        <_>
          18 18 10 2 2.</_></rects>
      <tilted>0</tilted></_>
    <_>
      <rects>
        <_>
          8 18 30 1 -1.</_>
        <_>
          18 18 10 1 3.</_></rects>
      <tilted>0</tilted></_>
    <_>
      <rects>
        <_>
          9 20 28 4 -1.</_>
        <_>
          9 22 28 2 2.</_></rects>
      <tilted>0</tilted></_>
    <_>
      <rects>
        <_>
          10 14 8 6 -1.</_>
        <_>
          10 14 4 3 2.</_>
        <_>
          14 17 4 3 2.</_></rects>
      <tilted>0</tilted></_>
    <_>
      <rects>
        <_>
          10 15 8 4 -1.</_>
        <_>
          10 15 4 2 2.</_>
        <_>
          14 17 4 2 2.</_></rects>
      <tilted>0</tilted></_>
    <_>
      <rects>
        <_>
          10 15 6 4 -1.</_>
        <_>
          10 17 6 2 2.</_></rects>
      <tilted>0</tilted></_>
    <_>
      <rects>
        <_>
          10 16 3 4 -1.</_>
        <_>
          11 16 1 4 3.</_></rects>
      <tilted>0</tilted></_>
    <_>
      <rects>
        <_>
          10 16 3 8 -1.</_>
        <_>
          11 16 1 8 3.</_></rects>
      <tilted>0</tilted></_>
    <_>
      <rects>
        <_>
          10 16 9 4 -1.</_>
        <_>
          13 16 3 4 3.</_></rects>
      <tilted>0</tilted></_>
    <_>
      <rects>
        <_>
          10 19 13 2 -1.</_>
        <_>
          10 20 13 1 2.</_></rects>
      <tilted>0</tilted></_>
    <_>
      <rects>
        <_>
          10 20 35 4 -1.</_>
        <_>
          10 22 35 2 2.</_></rects>
      <tilted>0</tilted></_>
    <_>
      <rects>
        <_>
          11 14 6 6 -1.</_>
        <_>
          11 14 3 3 2.</_>
        <_>
          14 17 3 3 2.</_></rects>
      <tilted>0</tilted></_>
    <_>
      <rects>
        <_>
          11 15 1 2 -1.</_>
        <_>
          11 16 1 1 2.</_></rects>
      <tilted>0</tilted></_>
    <_>
      <rects>
        <_>
          11 15 6 4 -1.</_>
        <_>
          11 15 3 2 2.</_>
        <_>
          14 17 3 2 2.</_></rects>
      <tilted>0</tilted></_>
    <_>
      <rects>
        <_>
          11 17 4 2 -1.</_>
        <_>
          13 17 2 2 2.</_></rects>
      <tilted>0</tilted></_>
    <_>
      <rects>
        <_>
          11 17 6 3 -1.</_>
        <_>
          13 17 2 3 3.</_></rects>
      <tilted>0</tilted></_>
    <_>
      <rects>
        <_>
          11 17 36 4 -1.</_>
        <_>
          11 17 18 2 2.</_>
        <_>
          29 19 18 2 2.</_></rects>
      <tilted>0</tilted></_>
    <_>
      <rects>
        <_>
          12 11 4 6 -1.</_>
        <_>
          12 14 4 3 2.</_></rects>
      <tilted>0</tilted></_>
    <_>
      <rects>
        <_>
          12 20 27 3 -1.</_>
        <_>
          12 21 27 1 3.</_></rects>
      <tilted>0</tilted></_>
    <_>
      <rects>
        <_>
          13 6 28 15 -1.</_>
        <_>
          13 11 28 5 3.</_></rects>
      <tilted>0</tilted></_>
    <_>
      <rects>
        <_>
          13 12 32 12 -1.</_>
        <_>
          13 16 32 4 3.</_></rects>
      <tilted>0</tilted></_>
    <_>
      <rects>
        <_>
          13 20 26 4 -1.</_>
        <_>
          13 22 26 2 2.</_></rects>
      <tilted>0</tilted></_>
    <_>
      <rects>
        <_>
          15 14 4 10 -1.</_>
        <_>
          17 14 2 10 2.</_></rects>
      <tilted>0</tilted></_>
    <_>
      <rects>
        <_>
          15 15 9 9 -1.</_>
        <_>
          18 15 3 9 3.</_></rects>
      <tilted>0</tilted></_>
    <_>
      <rects>
        <_>
          17 13 8 6 -1.</_>
        <_>
          17 13 4 3 2.</_>
        <_>
          21 16 4 3 2.</_></rects>
      <tilted>0</tilted></_>
    <_>
      <rects>
        <_>
          17 15 15 9 -1.</_>
        <_>
          17 18 15 3 3.</_></rects>
      <tilted>0</tilted></_>
    <_>
      <rects>
        <_>
          18 8 20 10 -1.</_>
        <_>
          18 8 10 5 2.</_>
        <_>
          28 13 10 5 2.</_></rects>
      <tilted>0</tilted></_>
    <_>
      <rects>
        <_>
          18 16 12 3 -1.</_>
        <_>
          22 16 4 3 3.</_></rects>
      <tilted>0</tilted></_>
    <_>
      <rects>
        <_>
          19 5 24 6 -1.</_>
        <_>
          19 5 12 3 2.</_>
        <_>
          31 8 12 3 2.</_></rects>
      <tilted>0</tilted></_>
    <_>
      <rects>
        <_>
          19 16 2 8 -1.</_>
        <_>
          20 16 1 8 2.</_></rects>
      <tilted>0</tilted></_>
    <_>
      <rects>
        <_>
          19 17 9 2 -1.</_>
        <_>
          22 17 3 2 3.</_></rects>
      <tilted>0</tilted></_>
    <_>
      <rects>
        <_>
          20 14 8 5 -1.</_>
        <_>
          24 14 4 5 2.</_></rects>
      <tilted>0</tilted></_>
    <_>
      <rects>
        <_>
          20 14 9 8 -1.</_>
        <_>
          20 18 9 4 2.</_></rects>
      <tilted>0</tilted></_>
    <_>
      <rects>
        <_>
          20 16 6 4 -1.</_>
        <_>
          22 16 2 4 3.</_></rects>
      <tilted>0</tilted></_>
    <_>
      <rects>
        <_>
          21 8 20 14 -1.</_>
        <_>
          21 15 20 7 2.</_></rects>
      <tilted>0</tilted></_>
    <_>
      <rects>
        <_>
          21 15 2 6 -1.</_>
        <_>
          22 15 1 6 2.</_></rects>
      <tilted>0</tilted></_>
    <_>
      <rects>
        <_>
          23 7 19 12 -1.</_>
        <_>
          23 11 19 4 3.</_></rects>
      <tilted>0</tilted></_>
    <_>
      <rects>
        <_>
          23 16 22 4 -1.</_>
        <_>
          23 16 11 2 2.</_>
        <_>
          34 18 11 2 2.</_></rects>
      <tilted>0</tilted></_>
    <_>
      <rects>
        <_>
          24 15 6 5 -1.</_>
        <_>
          26 15 2 5 3.</_></rects>
      <tilted>0</tilted></_>
    <_>
      <rects>
        <_>
          25 15 3 9 -1.</_>
        <_>
          26 15 1 9 3.</_></rects>
      <tilted>0</tilted></_>
    <_>
      <rects>
        <_>
          25 15 14 4 -1.</_>
        <_>
          25 15 7 2 2.</_>
        <_>
          32 17 7 2 2.</_></rects>
      <tilted>0</tilted></_>
    <_>
      <rects>
        <_>
          25 16 6 4 -1.</_>
        <_>
          27 16 2 4 3.</_></rects>
      <tilted>0</tilted></_>
    <_>
      <rects>
        <_>
          27 15 3 4 -1.</_>
        <_>
          28 15 1 4 3.</_></rects>
      <tilted>0</tilted></_>
    <_>
      <rects>
        <_>
          27 16 2 2 -1.</_>
        <_>
          28 16 1 2 2.</_></rects>
      <tilted>0</tilted></_>
    <_>
      <rects>
        <_>
          29 16 9 6 -1.</_>
        <_>
          32 16 3 6 3.</_></rects>
      <tilted>0</tilted></_>
    <_>
      <rects>
        <_>
          30 15 8 6 -1.</_>
        <_>
          30 15 4 3 2.</_>
        <_>
          34 18 4 3 2.</_></rects>
      <tilted>0</tilted></_>
    <_>
      <rects>
        <_>
          31 8 1 14 -1.</_>
        <_>
          31 15 1 7 2.</_></rects>
      <tilted>0</tilted></_>
    <_>
      <rects>
        <_>
          31 14 6 6 -1.</_>
        <_>
          31 14 3 3 2.</_>
        <_>
          34 17 3 3 2.</_></rects>
      <tilted>0</tilted></_>
    <_>
      <rects>
        <_>
          31 15 16 8 -1.</_>
        <_>
          39 15 8 8 2.</_></rects>
      <tilted>0</tilted></_>
    <_>
      <rects>
        <_>
          32 1 16 22 -1.</_>
        <_>
          32 1 8 11 2.</_>
        <_>
          40 12 8 11 2.</_></rects>
      <tilted>0</tilted></_>
    <_>
      <rects>
        <_>
          32 4 16 18 -1.</_>
        <_>
          32 4 8 9 2.</_>
        <_>
          40 13 8 9 2.</_></rects>
      <tilted>0</tilted></_>
    <_>
      <rects>
        <_>
          32 13 8 4 -1.</_>
        <_>
          32 15 8 2 2.</_></rects>
      <tilted>0</tilted></_>
    <_>
      <rects>
        <_>
          32 20 3 4 -1.</_>
        <_>
          32 22 3 2 2.</_></rects>
      <tilted>0</tilted></_>
    <_>
      <rects>
        <_>
          33 6 8 12 -1.</_>
        <_>
          33 10 8 4 3.</_></rects>
      <tilted>0</tilted></_>
    <_>
      <rects>
        <_>
          33 15 3 7 -1.</_>
        <_>
          34 15 1 7 3.</_></rects>
      <tilted>0</tilted></_>
    <_>
      <rects>
        <_>
          33 17 6 2 -1.</_>
        <_>
          35 17 2 2 3.</_></rects>
      <tilted>0</tilted></_>
    <_>
      <rects>
        <_>
          33 19 5 2 -1.</_>
        <_>
          33 20 5 1 2.</_></rects>
      <tilted>0</tilted></_>
    <_>
      <rects>
        <_>
          33 23 4 1 -1.</_>
        <_>
          35 23 2 1 2.</_></rects>
      <tilted>0</tilted></_>
    <_>
      <rects>
        <_>
          34 11 6 6 -1.</_>
        <_>
          34 14 6 3 2.</_></rects>
      <tilted>0</tilted></_>
    <_>
      <rects>
        <_>
          34 13 4 6 -1.</_>
        <_>
          34 15 4 2 3.</_></rects>
      <tilted>0</tilted></_>
    <_>
      <rects>
        <_>
          34 16 3 4 -1.</_>
        <_>
          35 16 1 4 3.</_></rects>
      <tilted>0</tilted></_>
    <_>
      <rects>
        <_>
          35 12 3 10 -1.</_>
        <_>
          36 12 1 10 3.</_></rects>
      <tilted>0</tilted></_>
    <_>
      <rects>
        <_>
          35 12 2 9 -1.</_>
        <_>
          35 15 2 3 3.</_></rects>
      <tilted>0</tilted></_>
    <_>
      <rects>
        <_>
          35 17 3 5 -1.</_>
        <_>
          36 17 1 5 3.</_></rects>
      <tilted>0</tilted></_>
    <_>
      <rects>
        <_>
          35 17 6 4 -1.</_>
        <_>
          37 17 2 4 3.</_></rects>
      <tilted>0</tilted></_>
    <_>
      <rects>
        <_>
          35 18 4 2 -1.</_>
        <_>
          37 18 2 2 2.</_></rects>
      <tilted>0</tilted></_>
    <_>
      <rects>
        <_>
          36 15 3 7 -1.</_>
        <_>
          37 15 1 7 3.</_></rects>
      <tilted>0</tilted></_>
    <_>
      <rects>
        <_>
          36 16 3 4 -1.</_>
        <_>
          37 16 1 4 3.</_></rects>
      <tilted>0</tilted></_>
    <_>
      <rects>
        <_>
          37 8 10 12 -1.</_>
        <_>
          37 8 5 6 2.</_>
        <_>
          42 14 5 6 2.</_></rects>
      <tilted>0</tilted></_>
    <_>
      <rects>
        <_>
          38 6 10 16 -1.</_>
        <_>
          38 6 5 8 2.</_>
        <_>
          43 14 5 8 2.</_></rects>
      <tilted>0</tilted></_>
    <_>
      <rects>
        <_>
          39 19 8 5 -1.</_>
        <_>
          43 19 4 5 2.</_></rects>
      <tilted>0</tilted></_>
    <_>
      <rects>
        <_>
          40 15 8 4 -1.</_>
        <_>
          44 15 4 4 2.</_></rects>
      <tilted>0</tilted></_>
    <_>
      <rects>
        <_>
          40 18 8 3 -1.</_>
        <_>
          44 18 4 3 2.</_></rects>
      <tilted>0</tilted></_>
    <_>
      <rects>
        <_>
          41 19 2 3 -1.</_>
        <_>
          42 19 1 3 2.</_></rects>
      <tilted>0</tilted></_>
    <_>
      <rects>
        <_>
          42 15 6 3 -1.</_>
        <_>
          45 15 3 3 2.</_></rects>
      <tilted>0</tilted></_></features></cascade>
</opencv_storage>
