<?xml version="1.0"?>
<opencv_storage>
<cascade>
  <stageType>BOOST</stageType>
  <featureType>HAAR</featureType>
  <height>48</height>
  <width>64</width>
  <stageParams>
    <boostType>GAB</boostType>
    <minHitRate>9.9500000476837158e-01</minHitRate>
    <maxFalseAlarm>5.0000000000000000e-01</maxFalseAlarm>
    <weightTrimRate>9.4999999999999996e-01</weightTrimRate>
    <maxDepth>1</maxDepth>
    <maxWeakCount>100</maxWeakCount></stageParams>
  <featureParams>
    <maxCatCount>0</maxCatCount>
    <featSize>1</featSize>
    <mode>BASIC</mode></featureParams>
  <stageNum>15</stageNum>
  <stages>
    <!-- stage 0 -->
    <_>
      <maxWeakCount>2</maxWeakCount>
      <stageThreshold>-6.7410540580749512e-01</stageThreshold>
      <weakClassifiers>
        <_>
          <internalNodes>
            0 -1 12 -3.8738220609957352e-05</internalNodes>
          <leafValues>
            -9.5876288414001465e-01 2.4855491518974304e-01</leafValues></_>
        <_>
          <internalNodes>
            0 -1 50 1.7913647752720863e-04</internalNodes>
          <leafValues>
            2.8465747833251953e-01 -1.</leafValues></_></weakClassifiers></_>
    <!-- stage 1 -->
    <_>
      <maxWeakCount>3</maxWeakCount>
      <stageThreshold>-2.3367182910442352e-01</stageThreshold>
      <weakClassifiers>
        <_>
          <internalNodes>
            0 -1 50 -5.7227407523896545e-05</internalNodes>
          <leafValues>
            -8.3561640977859497e-01 5.8064514398574829e-01</leafValues></_>
        <_>
          <internalNodes>
            0 -1 16 -1.8157154045184143e-05</internalNodes>
          <leafValues>
            -1. 3.0664312839508057e-01</leafValues></_>
        <_>
          <internalNodes>
            0 -1 48 9.6371595645905472e-06</internalNodes>
          <leafValues>
            2.9530146718025208e-01 -1.</leafValues></_></weakClassifiers></_>
    <!-- stage 2 -->
    <_>
      <maxWeakCount>3</maxWeakCount>
      <stageThreshold>-8.2285898923873901e-01</stageThreshold>
      <weakClassifiers>
        <_>
          <internalNodes>
            0 -1 0 -9.0720673324540257e-04</internalNodes>
          <leafValues>
            -8.9062500000000000e-01 4.5070421695709229e-01</leafValues></_>
        <_>
          <internalNodes>
            0 -1 11 -6.8175941705703735e-02</internalNodes>
          <leafValues>
            7.9947054386138916e-01 -4.9726650118827820e-01</leafValues></_>
        <_>
          <internalNodes>
            0 -1 37 1.6827340004965663e-05</internalNodes>
          <leafValues>
            -6.4625042676925659e-01 5.6503248214721680e-01</leafValues></_></weakClassifiers></_>
    <!-- stage 3 -->
    <_>
      <maxWeakCount>2</maxWeakCount>
      <stageThreshold>-1.5804399549961090e-01</stageThreshold>
      <weakClassifiers>
        <_>
          <internalNodes>
            0 -1 29 -2.4477954139001667e-04</internalNodes>
          <leafValues>
            7.8378379344940186e-01 -5.5102038383483887e-01</leafValues></_>
        <_>
          <internalNodes>
            0 -1 46 1.3098630006425083e-05</internalNodes>
          <leafValues>
            4.0662020444869995e-01 -9.4182777404785156e-01</leafValues></_></weakClassifiers></_>
    <!-- stage 4 -->
    <_>
      <maxWeakCount>3</maxWeakCount>
      <stageThreshold>-5.3899437189102173e-01</stageThreshold>
      <weakClassifiers>
        <_>
          <internalNodes>
            0 -1 2 -1.6970109194517136e-02</internalNodes>
          <leafValues>
            8.7179487943649292e-01 -6.1458331346511841e-01</leafValues></_>
        <_>
          <internalNodes>
            0 -1 39 -2.1227478981018066e-02</internalNodes>
          <leafValues>
            9.5099633932113647e-01 -4.6559768915176392e-01</leafValues></_>
        <_>
          <internalNodes>
            0 -1 49 -1.1693622582242824e-05</internalNodes>
          <leafValues>
            -1. 5.4118663072586060e-01</leafValues></_></weakClassifiers></_>
    <!-- stage 5 -->
    <_>
      <maxWeakCount>2</maxWeakCount>
      <stageThreshold>-1.9873695075511932e-01</stageThreshold>
      <weakClassifiers>
        <_>
          <internalNodes>
            0 -1 14 -1.4787022024393082e-02</internalNodes>
          <leafValues>
            7.1111112833023071e-01 -6.3333332538604736e-01</leafValues></_>
        <_>
          <internalNodes>
            0 -1 52 5.2845738537143916e-05</internalNodes>
          <leafValues>
            5.0592559576034546e-01 -9.0984809398651123e-01</leafValues></_></weakClassifiers></_>
    <!-- stage 6 -->
    <_>
      <maxWeakCount>4</maxWeakCount>
      <stageThreshold>-9.5009893178939819e-01</stageThreshold>
      <weakClassifiers>
        <_>
          <internalNodes>
            0 -1 5 -6.8944394588470459e-02</internalNodes>
          <leafValues>
            7.6315790414810181e-01 -5.5670100450515747e-01</leafValues></_>
        <_>
          <internalNodes>
            0 -1 33 -2.0872214809060097e-03</internalNodes>
          <leafValues>
            6.9618308544158936e-01 -5.1504755020141602e-01</leafValues></_>
        <_>
          <internalNodes>
            0 -1 24 -1.3238590327091515e-04</internalNodes>
          <leafValues>
            7.1082794666290283e-01 -4.8819354176521301e-01</leafValues></_>
        <_>
          <internalNodes>
            0 -1 38 4.3512074626050889e-05</internalNodes>
          <leafValues>
            -5.2056097984313965e-01 6.0984319448471069e-01</leafValues></_></weakClassifiers></_>
    <!-- stage 7 -->
    <_>
      <maxWeakCount>5</maxWeakCount>
      <stageThreshold>-1.6543145477771759e-01</stageThreshold>
      <weakClassifiers>
        <_>
          <internalNodes>
            0 -1 1 -1.8324525654315948e-01</internalNodes>
          <leafValues>
            7.8125000000000000e-01 -4.8543688654899597e-01</leafValues></_>
        <_>
          <internalNodes>
            0 -1 32 -2.1447264589369297e-04</internalNodes>
          <leafValues>
            8.0841261148452759e-01 -3.6004224419593811e-01</leafValues></_>
        <_>
          <internalNodes>
            0 -1 20 2.0062658935785294e-02</internalNodes>
          <leafValues>
            -4.0495470166206360e-01 8.2446098327636719e-01</leafValues></_>
        <_>
          <internalNodes>
            0 -1 6 -7.8620460044476204e-06</internalNodes>
          <leafValues>
            -9.3996804952621460e-01 3.8676261901855469e-01</leafValues></_>
        <_>
          <internalNodes>
            0 -1 26 9.4037828966975212e-04</internalNodes>
          <leafValues>
            -4.7021508216857910e-01 7.1480357646942139e-01</leafValues></_></weakClassifiers></_>
    <!-- stage 8 -->
    <_>
      <maxWeakCount>3</maxWeakCount>
      <stageThreshold>-4.6062484383583069e-01</stageThreshold>
      <weakClassifiers>
        <_>
          <internalNodes>
            0 -1 3 -1.5744927525520325e-01</internalNodes>
          <leafValues>
            8.5714286565780640e-01 -4.5794391632080078e-01</leafValues></_>
        <_>
          <internalNodes>
            0 -1 35 1.6339446883648634e-03</internalNodes>
          <leafValues>
            -5.0833976268768311e-01 6.2475210428237915e-01</leafValues></_>
        <_>
          <internalNodes>
            0 -1 25 2.0537423552013934e-05</internalNodes>
          <leafValues>
            -6.2743300199508667e-01 5.1349002122879028e-01</leafValues></_></weakClassifiers></_>
    <!-- stage 9 -->
    <_>
      <maxWeakCount>4</maxWeakCount>
      <stageThreshold>-4.2571374773979187e-01</stageThreshold>
      <weakClassifiers>
        <_>
          <internalNodes>
            0 -1 47 8.8672255515120924e-05</internalNodes>
          <leafValues>
            2.0731706917285919e-01 -7.9245281219482422e-01</leafValues></_>
        <_>
          <internalNodes>
            0 -1 45 -1.3641653822560329e-05</internalNodes>
          <leafValues>
            -9.4822996854782104e-01 2.5052580237388611e-01</leafValues></_>
        <_>
          <internalNodes>
            0 -1 19 -7.9736078623682261e-04</internalNodes>
          <leafValues>
            8.0563646554946899e-01 -4.4460228085517883e-01</leafValues></_>
        <_>
          <internalNodes>
            0 -1 28 4.8773802816867828e-02</internalNodes>
          <leafValues>
            -4.3895435333251953e-01 8.0917459726333618e-01</leafValues></_></weakClassifiers></_>
    <!-- stage 10 -->
    <_>
      <maxWeakCount>5</maxWeakCount>
      <stageThreshold>-4.1819736361503601e-01</stageThreshold>
      <weakClassifiers>
        <_>
          <internalNodes>
            0 -1 18 1.4160618185997009e-02</internalNodes>
          <leafValues>
            -4.2592594027519226e-01 7.7777779102325439e-01</leafValues></_>
        <_>
          <internalNodes>
            0 -1 40 5.2964186761528254e-04</internalNodes>
          <leafValues>
            -3.8586527109146118e-01 7.0634794235229492e-01</leafValues></_>
        <_>
          <internalNodes>
            0 -1 27 -1.9975630566477776e-03</internalNodes>
          <leafValues>
            7.9057055711746216e-01 -4.0293896198272705e-01</leafValues></_>
        <_>
          <internalNodes>
            0 -1 44 -8.9558365289121866e-05</internalNodes>
          <leafValues>
            -9.1158366203308105e-01 3.7576842308044434e-01</leafValues></_>
        <_>
          <internalNodes>
            0 -1 36 6.7808257881551981e-05</internalNodes>
          <leafValues>
            -6.7144888639450073e-01 4.8521789908409119e-01</leafValues></_></weakClassifiers></_>
    <!-- stage 11 -->
    <_>
      <maxWeakCount>5</maxWeakCount>
      <stageThreshold>-3.5931542515754700e-01</stageThreshold>
      <weakClassifiers>
        <_>
          <internalNodes>
            0 -1 8 4.7190762415993959e-05</internalNodes>
          <leafValues>
            1.3684210181236267e-01 -9.4999998807907104e-01</leafValues></_>
        <_>
          <internalNodes>
            0 -1 51 -3.9615180867258459e-05</internalNodes>
          <leafValues>
            -8.7724149227142334e-01 2.4582216143608093e-01</leafValues></_>
        <_>
          <internalNodes>
            0 -1 21 7.6539719884749502e-05</internalNodes>
          <leafValues>
            -4.6559351682662964e-01 6.6978633403778076e-01</leafValues></_>
        <_>
          <internalNodes>
            0 -1 13 -7.6490559877129272e-06</internalNodes>
          <leafValues>
            -9.6379029750823975e-01 2.9905831813812256e-01</leafValues></_>
        <_>
          <internalNodes>
            0 -1 23 -2.6971316401613876e-05</internalNodes>
          <leafValues>
            5.4761916399002075e-01 -5.4389733076095581e-01</leafValues></_></weakClassifiers></_>
    <!-- stage 12 -->
    <_>
      <maxWeakCount>4</maxWeakCount>
      <stageThreshold>-2.2075918316841125e-01</stageThreshold>
      <weakClassifiers>
        <_>
          <internalNodes>
            0 -1 22 -6.5991206793114543e-04</internalNodes>
          <leafValues>
            7.1875000000000000e-01 -4.6601942181587219e-01</leafValues></_>
        <_>
          <internalNodes>
            0 -1 9 7.9694773376104422e-06</internalNodes>
          <leafValues>
            3.2665067911148071e-01 -8.9363563060760498e-01</leafValues></_>
        <_>
          <internalNodes>
            0 -1 43 -3.2780871260911226e-03</internalNodes>
          <leafValues>
            9.1737562417984009e-01 -3.6539191007614136e-01</leafValues></_>
        <_>
          <internalNodes>
            0 -1 10 7.3451417847536504e-05</internalNodes>
          <leafValues>
            3.6570915579795837e-01 -9.0076792240142822e-01</leafValues></_></weakClassifiers></_>
    <!-- stage 13 -->
    <_>
      <maxWeakCount>5</maxWeakCount>
      <stageThreshold>-2.9809376597404480e-01</stageThreshold>
      <weakClassifiers>
        <_>
          <internalNodes>
            0 -1 7 -1.0079509019851685e-01</internalNodes>
          <leafValues>
            8.5185188055038452e-01 -4.4444444775581360e-01</leafValues></_>
        <_>
          <internalNodes>
            0 -1 15 9.6435993909835815e-03</internalNodes>
          <leafValues>
            -3.9897906780242920e-01 7.5152581930160522e-01</leafValues></_>
        <_>
          <internalNodes>
            0 -1 30 -2.6878567412495613e-02</internalNodes>
          <leafValues>
            8.6403518915176392e-01 -3.1988438963890076e-01</leafValues></_>
        <_>
          <internalNodes>
            0 -1 4 -3.1171875889413059e-04</internalNodes>
          <leafValues>
            -9.2547875642776489e-01 3.7677836418151855e-01</leafValues></_>
        <_>
          <internalNodes>
            0 -1 41 -2.8810634830733761e-05</internalNodes>
          <leafValues>
            6.4018797874450684e-01 -4.9794912338256836e-01</leafValues></_></weakClassifiers></_>
    <!-- stage 14 -->
    <_>
      <maxWeakCount>4</maxWeakCount>
      <stageThreshold>-2.8478968143463135e-01</stageThreshold>
      <weakClassifiers>
        <_>
          <internalNodes>
            0 -1 42 -3.6392710171639919e-05</internalNodes>
          <leafValues>
            4.8888888955116272e-01 -5.2222222089767456e-01</leafValues></_>
        <_>
          <internalNodes>
            0 -1 31 -8.4249665960669518e-03</internalNodes>
          <leafValues>
            -8.4265804290771484e-01 3.3253410458564758e-01</leafValues></_>
        <_>
          <internalNodes>
            0 -1 34 -3.4624143154360354e-04</internalNodes>
          <leafValues>
            5.1969856023788452e-01 -5.3060591220855713e-01</leafValues></_>
        <_>
          <internalNodes>
            0 -1 17 -1.8224015366286039e-04</internalNodes>
          <leafValues>
            6.8192923069000244e-01 -4.5071908831596375e-01</leafValues></_></weakClassifiers></_></stages>
  <features>
    <_>
      <rects>
        <_>
          0 3 4 36 -1.</_>
        <_>
          0 21 4 18 2.</_></rects>
      <tilted>0</tilted></_>
    <_>
      <rects>
        <_>
          0 3 63 27 -1.</_>
        <_>
          21 3 21 27 3.</_></rects>
      <tilted>0</tilted></_>
    <_>
      <rects>
        <_>
          1 22 28 10 -1.</_>
        <_>
          15 22 14 10 2.</_></rects>
      <tilted>0</tilted></_>
    <_>
      <rects>
        <_>
          1 32 63 14 -1.</_>
        <_>
          22 32 21 14 3.</_></rects>
      <tilted>0</tilted></_>
    <_>
      <rects>
        <_>
          2 0 10 12 -1.</_>
        <_>
          2 0 5 6 2.</_>
        <_>
          7 6 5 6 2.</_></rects>
      <tilted>0</tilted></_>
    <_>
      <rects>
        <_>
          2 1 32 28 -1.</_>
        <_>
          18 1 16 28 2.</_></rects>
      <tilted>0</tilted></_>
    <_>
      <rects>
        <_>
          2 4 2 11 -1.</_>
        <_>
          3 4 1 11 2.</_></rects>
      <tilted>0</tilted></_>
    <_>
      <rects>
        <_>
          2 35 60 9 -1.</_>
        <_>
          22 35 20 9 3.</_></rects>
      <tilted>0</tilted></_>
    <_>
      <rects>
        <_>
          3 4 3 6 -1.</_>
        <_>
          4 4 1 6 3.</_></rects>
      <tilted>0</tilted></_>
    <_>
      <rects>
        <_>
          3 45 3 2 -1.</_>
        <_>
          4 45 1 2 3.</_></rects>
      <tilted>0</tilted></_>
    <_>
      <rects>
        <_>
          4 43 9 3 -1.</_>
        <_>
          7 43 3 3 3.</_></rects>
      <tilted>0</tilted></_>
    <_>
      <rects>
        <_>
          5 1 42 33 -1.</_>
        <_>
          19 1 14 33 3.</_></rects>
      <tilted>0</tilted></_>
    <_>
      <rects>
        <_>
          5 2 6 4 -1.</_>
        <_>
          5 2 3 2 2.</_>
        <_>
          8 4 3 2 2.</_></rects>
      <tilted>0</tilted></_>
    <_>
      <rects>
        <_>
          6 0 3 3 -1.</_>
        <_>
          7 0 1 3 3.</_></rects>
      <tilted>0</tilted></_>
    <_>
      <rects>
        <_>
          8 25 22 23 -1.</_>
        <_>
          19 25 11 23 2.</_></rects>
      <tilted>0</tilted></_>
    <_>
      <rects>
        <_>
          12 3 20 18 -1.</_>
        <_>
          12 12 20 9 2.</_></rects>
      <tilted>0</tilted></_>
    <_>
      <rects>
        <_>
          14 0 1 4 -1.</_>
        <_>
          14 2 1 2 2.</_></rects>
      <tilted>0</tilted></_>
    <_>
      <rects>
        <_>
          14 41 15 6 -1.</_>
        <_>
          19 41 5 6 3.</_></rects>
      <tilted>0</tilted></_>
    <_>
      <rects>
        <_>
          15 2 24 18 -1.</_>
        <_>
          15 2 12 9 2.</_>
        <_>
          27 11 12 9 2.</_></rects>
      <tilted>0</tilted></_>
    <_>
      <rects>
        <_>
          16 26 6 5 -1.</_>
        <_>
          18 26 2 5 3.</_></rects>
      <tilted>0</tilted></_>
    <_>
      <rects>
        <_>
          16 33 33 7 -1.</_>
        <_>
          27 33 11 7 3.</_></rects>
      <tilted>0</tilted></_>
    <_>
      <rects>
        <_>
          24 33 4 3 -1.</_>
        <_>
          24 34 4 1 3.</_></rects>
      <tilted>0</tilted></_>
    <_>
      <rects>
        <_>
          25 11 13 3 -1.</_>
        <_>
          25 12 13 1 3.</_></rects>
      <tilted>0</tilted></_>
    <_>
      <rects>
        <_>
          26 40 1 6 -1.</_>
        <_>
          26 42 1 2 3.</_></rects>
      <tilted>0</tilted></_>
    <_>
      <rects>
        <_>
          27 20 6 4 -1.</_>
        <_>
          27 20 3 2 2.</_>
        <_>
          30 22 3 2 2.</_></rects>
      <tilted>0</tilted></_>
    <_>
      <rects>
        <_>
          28 10 10 3 -1.</_>
        <_>
          28 11 10 1 3.</_></rects>
      <tilted>0</tilted></_>
    <_>
      <rects>
        <_>
          29 3 15 6 -1.</_>
        <_>
          29 5 15 2 3.</_></rects>
      <tilted>0</tilted></_>
    <_>
      <rects>
        <_>
          29 20 6 10 -1.</_>
        <_>
          31 20 2 10 3.</_></rects>
      <tilted>0</tilted></_>
    <_>
      <rects>
        <_>
          30 11 34 10 -1.</_>
        <_>
          47 11 17 10 2.</_></rects>
      <tilted>0</tilted></_>
    <_>
      <rects>
        <_>
          31 24 8 2 -1.</_>
        <_>
          31 24 4 1 2.</_>
        <_>
          35 25 4 1 2.</_></rects>
      <tilted>0</tilted></_>
    <_>
      <rects>
        <_>
          32 2 21 20 -1.</_>
        <_>
          32 12 21 10 2.</_></rects>
      <tilted>0</tilted></_>
    <_>
      <rects>
        <_>
          33 7 3 36 -1.</_>
        <_>
          33 25 3 18 2.</_></rects>
      <tilted>0</tilted></_>
    <_>
      <rects>
        <_>
          33 13 8 2 -1.</_>
        <_>
          33 13 4 1 2.</_>
        <_>
          37 14 4 1 2.</_></rects>
      <tilted>0</tilted></_>
    <_>
      <rects>
        <_>
          34 33 16 3 -1.</_>
        <_>
          42 33 8 3 2.</_></rects>
      <tilted>0</tilted></_>
    <_>
      <rects>
        <_>
          35 17 25 6 -1.</_>
        <_>
          35 19 25 2 3.</_></rects>
      <tilted>0</tilted></_>
    <_>
      <rects>
        <_>
          35 34 20 10 -1.</_>
        <_>
          35 34 10 5 2.</_>
        <_>
          45 39 10 5 2.</_></rects>
      <tilted>0</tilted></_>
    <_>
      <rects>
        <_>
          36 14 2 18 -1.</_>
        <_>
          36 14 1 9 2.</_>
        <_>
          37 23 1 9 2.</_></rects>
      <tilted>0</tilted></_>
    <_>
      <rects>
        <_>
          36 24 2 9 -1.</_>
        <_>
          37 24 1 9 2.</_></rects>
      <tilted>0</tilted></_>
    <_>
      <rects>
        <_>
          36 25 2 6 -1.</_>
        <_>
          37 25 1 6 2.</_></rects>
      <tilted>0</tilted></_>
    <_>
      <rects>
        <_>
          39 0 24 26 -1.</_>
        <_>
          39 0 12 13 2.</_>
        <_>
          51 13 12 13 2.</_></rects>
      <tilted>0</tilted></_>
    <_>
      <rects>
        <_>
          39 3 1 15 -1.</_>
        <_>
          39 8 1 5 3.</_></rects>
      <tilted>0</tilted></_>
    <_>
      <rects>
        <_>
          40 20 4 2 -1.</_>
        <_>
          40 20 2 1 2.</_>
        <_>
          42 21 2 1 2.</_></rects>
      <tilted>0</tilted></_>
    <_>
      <rects>
        <_>
          40 28 3 3 -1.</_>
        <_>
          41 28 1 3 3.</_></rects>
      <tilted>0</tilted></_>
    <_>
      <rects>
        <_>
          41 17 12 5 -1.</_>
        <_>
          45 17 4 5 3.</_></rects>
      <tilted>0</tilted></_>
    <_>
      <rects>
        <_>
          52 6 12 6 -1.</_>
        <_>
          52 8 12 2 3.</_></rects>
      <tilted>0</tilted></_>
    <_>
      <rects>
        <_>
          53 0 6 3 -1.</_>
        <_>
          55 0 2 3 3.</_></rects>
      <tilted>0</tilted></_>
    <_>
      <rects>
        <_>
          58 0 6 1 -1.</_>
        <_>
          61 0 3 1 2.</_></rects>
      <tilted>0</tilted></_>
    <_>
      <rects>
        <_>
          58 0 6 16 -1.</_>
        <_>
          58 0 3 8 2.</_>
        <_>
          61 8 3 8 2.</_></rects>
      <tilted>0</tilted></_>
    <_>
      <rects>
        <_>
          59 0 3 2 -1.</_>
        <_>
          60 0 1 2 3.</_></rects>
      <tilted>0</tilted></_>
    <_>
      <rects>
        <_>
          59 0 3 3 -1.</_>
        <_>
          60 0 1 3 3.</_></rects>
      <tilted>0</tilted></_>
    <_>
      <rects>
        <_>
          61 1 1 15 -1.</_>
        <_>
          61 6 1 5 3.</_></rects>
      <tilted>0</tilted></_>
    <_>
      <rects>
        <_>
          61 41 3 7 -1.</_>
        <_>
          62 41 1 7 3.</_></rects>
      <tilted>0</tilted></_>
    <_>
      <rects>
        <_>
          63 29 1 14 -1.</_>
        <_>
          63 36 1 7 2.</_></rects>
      <tilted>0</tilted></_></features></cascade>
</opencv_storage>
