<?xml version="1.0"?>
<opencv_storage>
<cascade>
  <stageType>BOOST</stageType>
  <featureType>HAAR</featureType>
  <height>48</height>
  <width>64</width>
  <stageParams>
    <boostType>GAB</boostType>
    <minHitRate>9.9500000476837158e-01</minHitRate>
    <maxFalseAlarm>5.0000000000000000e-01</maxFalseAlarm>
    <weightTrimRate>9.4999999999999996e-01</weightTrimRate>
    <maxDepth>1</maxDepth>
    <maxWeakCount>100</maxWeakCount></stageParams>
  <featureParams>
    <maxCatCount>0</maxCatCount>
    <featSize>1</featSize>
    <mode>BASIC</mode></featureParams>
  <stageNum>15</stageNum>
  <stages>
    <!-- stage 0 -->
    <_>
      <maxWeakCount>3</maxWeakCount>
      <stageThreshold>-9.4956433773040771e-01</stageThreshold>
      <weakClassifiers>
        <_>
          <internalNodes>
            0 -1 8 -2.5582873821258545e-01</internalNodes>
          <leafValues>
            8.3084577322006226e-01 -8.5388129949569702e-01</leafValues></_>
        <_>
          <internalNodes>
            0 -1 25 -6.1294559389352798e-02</internalNodes>
          <leafValues>
            7.3052591085433960e-01 -7.7506202459335327e-01</leafValues></_>
        <_>
          <internalNodes>
            0 -1 31 3.2086450606584549e-02</internalNodes>
          <leafValues>
            -7.7359098196029663e-01 6.7937892675399780e-01</leafValues></_></weakClassifiers></_>
    <!-- stage 1 -->
    <_>
      <maxWeakCount>4</maxWeakCount>
      <stageThreshold>-6.3396513462066650e-01</stageThreshold>
      <weakClassifiers>
        <_>
          <internalNodes>
            0 -1 37 7.0955038070678711e-02</internalNodes>
          <leafValues>
            -9.2270529270172119e-01 8.0281692743301392e-01</leafValues></_>
        <_>
          <internalNodes>
            0 -1 3 -8.0549374222755432e-02</internalNodes>
          <leafValues>
            8.1503248214721680e-01 -7.3382538557052612e-01</leafValues></_>
        <_>
          <internalNodes>
            0 -1 47 -2.6724355848273262e-05</internalNodes>
          <leafValues>
            -1. 5.2554190158843994e-01</leafValues></_>
        <_>
          <internalNodes>
            0 -1 43 -7.5989191827829927e-06</internalNodes>
          <leafValues>
            -9.1062194108963013e-01 4.9702367186546326e-01</leafValues></_></weakClassifiers></_>
    <!-- stage 2 -->
    <_>
      <maxWeakCount>2</maxWeakCount>
      <stageThreshold>-3.2216590642929077e-01</stageThreshold>
      <weakClassifiers>
        <_>
          <internalNodes>
            0 -1 24 4.0698863565921783e-02</internalNodes>
          <leafValues>
            -8.5964912176132202e-01 5.1004016399383545e-01</leafValues></_>
        <_>
          <internalNodes>
            0 -1 34 -4.3924907222390175e-03</internalNodes>
          <leafValues>
            5.3748321533203125e-01 -7.8717464208602905e-01</leafValues></_></weakClassifiers></_>
    <!-- stage 3 -->
    <_>
      <maxWeakCount>4</maxWeakCount>
      <stageThreshold>-1.0336956977844238e+00</stageThreshold>
      <weakClassifiers>
        <_>
          <internalNodes>
            0 -1 5 -3.5622835159301758e-02</internalNodes>
          <leafValues>
            5.1999998092651367e-01 -8.8235294818878174e-01</leafValues></_>
        <_>
          <internalNodes>
            0 -1 42 -9.2037462309235707e-06</internalNodes>
          <leafValues>
            -9.8932951688766479e-01 4.1611924767494202e-01</leafValues></_>
        <_>
          <internalNodes>
            0 -1 44 -5.4624715630779974e-06</internalNodes>
          <leafValues>
            -9.6408104896545410e-01 3.9425215125083923e-01</leafValues></_>
        <_>
          <internalNodes>
            0 -1 48 2.1295880287652835e-05</internalNodes>
          <leafValues>
            3.9971491694450378e-01 -9.7437924146652222e-01</leafValues></_></weakClassifiers></_>
    <!-- stage 4 -->
    <_>
      <maxWeakCount>3</maxWeakCount>
      <stageThreshold>-1.0874534845352173e+00</stageThreshold>
      <weakClassifiers>
        <_>
          <internalNodes>
            0 -1 48 -2.2623069071414648e-06</internalNodes>
          <leafValues>
            -9.3258428573608398e-01 6.0330575704574585e-01</leafValues></_>
        <_>
          <internalNodes>
            0 -1 42 2.2880558390170336e-06</internalNodes>
          <leafValues>
            4.5963531732559204e-01 -8.4961134195327759e-01</leafValues></_>
        <_>
          <internalNodes>
            0 -1 30 -2.1040804684162140e-02</internalNodes>
          <leafValues>
            6.9474208354949951e-01 -6.7408156394958496e-01</leafValues></_></weakClassifiers></_>
    <!-- stage 5 -->
    <_>
      <maxWeakCount>3</maxWeakCount>
      <stageThreshold>-2.8902050852775574e-01</stageThreshold>
      <weakClassifiers>
        <_>
          <internalNodes>
            0 -1 4 -2.9783032834529877e-02</internalNodes>
          <leafValues>
            3.9784947037696838e-01 -9.2907804250717163e-01</leafValues></_>
        <_>
          <internalNodes>
            0 -1 42 2.2491458366857842e-06</internalNodes>
          <leafValues>
            3.2126006484031677e-01 -9.2741465568542480e-01</leafValues></_>
        <_>
          <internalNodes>
            0 -1 19 -1.9932549548684619e-05</internalNodes>
          <leafValues>
            -9.7346168756484985e-01 3.1879743933677673e-01</leafValues></_></weakClassifiers></_>
    <!-- stage 6 -->
    <_>
      <maxWeakCount>2</maxWeakCount>
      <stageThreshold>-4.6352109313011169e-01</stageThreshold>
      <weakClassifiers>
        <_>
          <internalNodes>
            0 -1 35 3.7069953978061676e-02</internalNodes>
          <leafValues>
            -9.4088667631149292e-01 7.8801840543746948e-01</leafValues></_>
        <_>
          <internalNodes>
            0 -1 0 -6.9433329626917839e-03</internalNodes>
          <leafValues>
            4.7736561298370361e-01 -9.8023855686187744e-01</leafValues></_></weakClassifiers></_>
    <!-- stage 7 -->
    <_>
      <maxWeakCount>3</maxWeakCount>
      <stageThreshold>-7.3591724038124084e-02</stageThreshold>
      <weakClassifiers>
        <_>
          <internalNodes>
            0 -1 49 -1.1817055565188639e-05</internalNodes>
          <leafValues>
            -9.1780823469161987e-01 4.1605839133262634e-01</leafValues></_>
        <_>
          <internalNodes>
            0 -1 22 4.9401950091123581e-02</internalNodes>
          <leafValues>
            -6.8295902013778687e-01 4.8535472154617310e-01</leafValues></_>
        <_>
          <internalNodes>
            0 -1 17 -4.5432261686073616e-06</internalNodes>
          <leafValues>
            -9.4918644428253174e-01 3.5886177420616150e-01</leafValues></_></weakClassifiers></_>
    <!-- stage 8 -->
    <_>
      <maxWeakCount>2</maxWeakCount>
      <stageThreshold>-5.5676525831222534e-01</stageThreshold>
      <weakClassifiers>
        <_>
          <internalNodes>
            0 -1 11 5.4447933507617563e-05</internalNodes>
          <leafValues>
            4.3295019865036011e-01 -8.3647799491882324e-01</leafValues></_>
        <_>
          <internalNodes>
            0 -1 46 8.4198863987694494e-06</internalNodes>
          <leafValues>
            2.7971270680427551e-01 -1.</leafValues></_></weakClassifiers></_>
    <!-- stage 9 -->
    <_>
      <maxWeakCount>4</maxWeakCount>
      <stageThreshold>-7.1801292896270752e-01</stageThreshold>
      <weakClassifiers>
        <_>
          <internalNodes>
            0 -1 36 1.0175360739231110e-01</internalNodes>
          <leafValues>
            -7.6404494047164917e-01 4.7933885455131531e-01</leafValues></_>
        <_>
          <internalNodes>
            0 -1 6 2.4498222046531737e-04</internalNodes>
          <leafValues>
            3.2364583015441895e-01 -9.0351963043212891e-01</leafValues></_>
        <_>
          <internalNodes>
            0 -1 26 -2.1735681220889091e-02</internalNodes>
          <leafValues>
            4.9369364976882935e-01 -7.0626264810562134e-01</leafValues></_>
        <_>
          <internalNodes>
            0 -1 23 -8.2694203592836857e-04</internalNodes>
          <leafValues>
            4.2864885926246643e-01 -7.0317339897155762e-01</leafValues></_></weakClassifiers></_>
    <!-- stage 10 -->
    <_>
      <maxWeakCount>5</maxWeakCount>
      <stageThreshold>-8.0681627988815308e-01</stageThreshold>
      <weakClassifiers>
        <_>
          <internalNodes>
            0 -1 40 1.2406297959387302e-02</internalNodes>
          <leafValues>
            -8.9552241563796997e-01 3.4965035319328308e-01</leafValues></_>
        <_>
          <internalNodes>
            0 -1 2 -1.7624336481094360e-01</internalNodes>
          <leafValues>
            4.3648567795753479e-01 -5.6387090682983398e-01</leafValues></_>
        <_>
          <internalNodes>
            0 -1 39 -4.9149744882015511e-05</internalNodes>
          <leafValues>
            -9.6441167593002319e-01 2.7471154928207397e-01</leafValues></_>
        <_>
          <internalNodes>
            0 -1 45 -5.2512850743369199e-06</internalNodes>
          <leafValues>
            -9.8664343357086182e-01 1.9329211115837097e-01</leafValues></_>
        <_>
          <internalNodes>
            0 -1 32 -6.0264937928877771e-06</internalNodes>
          <leafValues>
            -9.6311450004577637e-01 1.8457336723804474e-01</leafValues></_></weakClassifiers></_>
    <!-- stage 11 -->
    <_>
      <maxWeakCount>4</maxWeakCount>
      <stageThreshold>-5.7583165168762207e-01</stageThreshold>
      <weakClassifiers>
        <_>
          <internalNodes>
            0 -1 9 -5.7063333690166473e-02</internalNodes>
          <leafValues>
            4.0151515603065491e-01 -8.0769228935241699e-01</leafValues></_>
        <_>
          <internalNodes>
            0 -1 27 -7.4923988431692123e-03</internalNodes>
          <leafValues>
            7.7690333127975464e-01 -3.7936893105506897e-01</leafValues></_>
        <_>
          <internalNodes>
            0 -1 10 -3.0506669190799585e-06</internalNodes>
          <leafValues>
            -8.9876937866210938e-01 3.5967275500297546e-01</leafValues></_>
        <_>
          <internalNodes>
            0 -1 14 4.2971831862814724e-04</internalNodes>
          <leafValues>
            3.1371921300888062e-01 -9.5765060186386108e-01</leafValues></_></weakClassifiers></_>
    <!-- stage 12 -->
    <_>
      <maxWeakCount>5</maxWeakCount>
      <stageThreshold>-5.0850105285644531e-01</stageThreshold>
      <weakClassifiers>
        <_>
          <internalNodes>
            0 -1 21 -1.4853528141975403e-01</internalNodes>
          <leafValues>
            4.4642856717109680e-01 -6.1224490404129028e-01</leafValues></_>
        <_>
          <internalNodes>
            0 -1 20 2.3510204628109932e-03</internalNodes>
          <leafValues>
            -8.9940750598907471e-01 3.2514736056327820e-01</leafValues></_>
        <_>
          <internalNodes>
            0 -1 7 -4.1736271232366562e-03</internalNodes>
          <leafValues>
            -8.1177109479904175e-01 2.8678247332572937e-01</leafValues></_>
        <_>
          <internalNodes>
            0 -1 1 -8.6331963539123535e-02</internalNodes>
          <leafValues>
            2.3383650183677673e-01 -8.4158784151077271e-01</leafValues></_>
        <_>
          <internalNodes>
            0 -1 28 -2.1615380421280861e-02</internalNodes>
          <leafValues>
            5.2664566040039062e-01 -5.7614105939865112e-01</leafValues></_></weakClassifiers></_>
    <!-- stage 13 -->
    <_>
      <maxWeakCount>5</maxWeakCount>
      <stageThreshold>-2.7096435427665710e-01</stageThreshold>
      <weakClassifiers>
        <_>
          <internalNodes>
            0 -1 38 -6.9189563873806037e-06</internalNodes>
          <leafValues>
            4.3961352109909058e-01 -5.2112674713134766e-01</leafValues></_>
        <_>
          <internalNodes>
            0 -1 12 -3.0842911655781791e-05</internalNodes>
          <leafValues>
            -7.8183794021606445e-01 2.9703846573829651e-01</leafValues></_>
        <_>
          <internalNodes>
            0 -1 33 7.8493840192095377e-06</internalNodes>
          <leafValues>
            2.3060758411884308e-01 -8.3903914690017700e-01</leafValues></_>
        <_>
          <internalNodes>
            0 -1 13 -6.8063809521845542e-06</internalNodes>
          <leafValues>
            -8.4127867221832275e-01 2.5720790028572083e-01</leafValues></_>
        <_>
          <internalNodes>
            0 -1 15 -2.0012266933917999e-02</internalNodes>
          <leafValues>
            6.0998833179473877e-01 -4.1655540466308594e-01</leafValues></_></weakClassifiers></_>
    <!-- stage 14 -->
    <_>
      <maxWeakCount>4</maxWeakCount>
      <stageThreshold>-3.7694436311721802e-01</stageThreshold>
      <weakClassifiers>
        <_>
          <internalNodes>
            0 -1 29 3.8247179239988327e-02</internalNodes>
          <leafValues>
            -3.1446540355682373e-01 7.8431373834609985e-01</leafValues></_>
        <_>
          <internalNodes>
            0 -1 16 1.0109558934345841e-03</internalNodes>
          <leafValues>
            -8.0824458599090576e-01 3.1478750705718994e-01</leafValues></_>
        <_>
          <internalNodes>
            0 -1 41 8.6246838327497244e-04</internalNodes>
          <leafValues>
            -9.6826177835464478e-01 1.8330295383930206e-01</leafValues></_>
        <_>
          <internalNodes>
            0 -1 18 -2.0700502209365368e-03</internalNodes>
          <leafValues>
            5.6246268749237061e-01 -3.9300420880317688e-01</leafValues></_></weakClassifiers></_></stages>
  <features>
    <_>
      <rects>
        <_>
          0 0 26 26 -1.</_>
        <_>
          0 13 26 13 2.</_></rects>
      <tilted>0</tilted></_>
    <_>
      <rects>
        <_>
          0 0 52 45 -1.</_>
        <_>
          26 0 26 45 2.</_></rects>
      <tilted>0</tilted></_>
    <_>
      <rects>
        <_>
          0 7 32 35 -1.</_>
        <_>
          16 7 16 35 2.</_></rects>
      <tilted>0</tilted></_>
    <_>
      <rects>
        <_>
          0 11 30 22 -1.</_>
        <_>
          15 11 15 22 2.</_></rects>
      <tilted>0</tilted></_>
    <_>
      <rects>
        <_>
          0 16 28 12 -1.</_>
        <_>
          14 16 14 12 2.</_></rects>
      <tilted>0</tilted></_>
    <_>
      <rects>
        <_>
          0 29 42 9 -1.</_>
        <_>
          21 29 21 9 2.</_></rects>
      <tilted>0</tilted></_>
    <_>
      <rects>
        <_>
          0 37 9 9 -1.</_>
        <_>
          0 40 9 3 3.</_></rects>
      <tilted>0</tilted></_>
    <_>
      <rects>
        <_>
          0 46 60 2 -1.</_>
        <_>
          30 46 30 2 2.</_></rects>
      <tilted>0</tilted></_>
    <_>
      <rects>
        <_>
          1 7 63 33 -1.</_>
        <_>
          22 7 21 33 3.</_></rects>
      <tilted>0</tilted></_>
    <_>
      <rects>
        <_>
          1 18 26 30 -1.</_>
        <_>
          14 18 13 30 2.</_></rects>
      <tilted>0</tilted></_>
    <_>
      <rects>
        <_>
          1 23 7 24 -1.</_>
        <_>
          1 31 7 8 3.</_></rects>
      <tilted>0</tilted></_>
    <_>
      <rects>
        <_>
          1 37 7 9 -1.</_>
        <_>
          1 40 7 3 3.</_></rects>
      <tilted>0</tilted></_>
    <_>
      <rects>
        <_>
          2 0 62 2 -1.</_>
        <_>
          33 0 31 2 2.</_></rects>
      <tilted>0</tilted></_>
    <_>
      <rects>
        <_>
          3 0 24 6 -1.</_>
        <_>
          11 0 8 6 3.</_></rects>
      <tilted>0</tilted></_>
    <_>
      <rects>
        <_>
          3 0 56 1 -1.</_>
        <_>
          31 0 28 1 2.</_></rects>
      <tilted>0</tilted></_>
    <_>
      <rects>
        <_>
          4 0 40 8 -1.</_>
        <_>
          4 4 40 4 2.</_></rects>
      <tilted>0</tilted></_>
    <_>
      <rects>
        <_>
          4 27 23 12 -1.</_>
        <_>
          4 33 23 6 2.</_></rects>
      <tilted>0</tilted></_>
    <_>
      <rects>
        <_>
          4 38 3 9 -1.</_>
        <_>
          4 41 3 3 3.</_></rects>
      <tilted>0</tilted></_>
    <_>
      <rects>
        <_>
          8 8 37 6 -1.</_>
        <_>
          8 10 37 2 3.</_></rects>
      <tilted>0</tilted></_>
    <_>
      <rects>
        <_>
          9 47 30 1 -1.</_>
        <_>
          19 47 10 1 3.</_></rects>
      <tilted>0</tilted></_>
    <_>
      <rects>
        <_>
          12 25 12 20 -1.</_>
        <_>
          12 35 12 10 2.</_></rects>
      <tilted>0</tilted></_>
    <_>
      <rects>
        <_>
          16 6 48 31 -1.</_>
        <_>
          32 6 16 31 3.</_></rects>
      <tilted>0</tilted></_>
    <_>
      <rects>
        <_>
          16 34 33 14 -1.</_>
        <_>
          16 41 33 7 2.</_></rects>
      <tilted>0</tilted></_>
    <_>
      <rects>
        <_>
          17 1 6 20 -1.</_>
        <_>
          20 1 3 20 2.</_></rects>
      <tilted>0</tilted></_>
    <_>
      <rects>
        <_>
          17 30 27 18 -1.</_>
        <_>
          17 39 27 9 2.</_></rects>
      <tilted>0</tilted></_>
    <_>
      <rects>
        <_>
          18 0 10 48 -1.</_>
        <_>
          18 16 10 16 3.</_></rects>
      <tilted>0</tilted></_>
    <_>
      <rects>
        <_>
          19 0 25 14 -1.</_>
        <_>
          19 7 25 7 2.</_></rects>
      <tilted>0</tilted></_>
    <_>
      <rects>
        <_>
          19 36 36 1 -1.</_>
        <_>
          31 36 12 1 3.</_></rects>
      <tilted>0</tilted></_>
    <_>
      <rects>
        <_>
          20 2 16 21 -1.</_>
        <_>
          20 9 16 7 3.</_></rects>
      <tilted>0</tilted></_>
    <_>
      <rects>
        <_>
          21 33 28 11 -1.</_>
        <_>
          35 33 14 11 2.</_></rects>
      <tilted>0</tilted></_>
    <_>
      <rects>
        <_>
          22 0 13 24 -1.</_>
        <_>
          22 8 13 8 3.</_></rects>
      <tilted>0</tilted></_>
    <_>
      <rects>
        <_>
          23 34 21 14 -1.</_>
        <_>
          23 41 21 7 2.</_></rects>
      <tilted>0</tilted></_>
    <_>
      <rects>
        <_>
          24 0 27 1 -1.</_>
        <_>
          33 0 9 1 3.</_></rects>
      <tilted>0</tilted></_>
    <_>
      <rects>
        <_>
          28 47 34 1 -1.</_>
        <_>
          45 47 17 1 2.</_></rects>
      <tilted>0</tilted></_>
    <_>
      <rects>
        <_>
          34 0 3 20 -1.</_>
        <_>
          34 10 3 10 2.</_></rects>
      <tilted>0</tilted></_>
    <_>
      <rects>
        <_>
          34 3 30 24 -1.</_>
        <_>
          49 3 15 24 2.</_></rects>
      <tilted>0</tilted></_>
    <_>
      <rects>
        <_>
          34 10 30 31 -1.</_>
        <_>
          49 10 15 31 2.</_></rects>
      <tilted>0</tilted></_>
    <_>
      <rects>
        <_>
          36 7 28 31 -1.</_>
        <_>
          50 7 14 31 2.</_></rects>
      <tilted>0</tilted></_>
    <_>
      <rects>
        <_>
          36 24 2 6 -1.</_>
        <_>
          36 27 2 3 2.</_></rects>
      <tilted>0</tilted></_>
    <_>
      <rects>
        <_>
          37 1 21 2 -1.</_>
        <_>
          44 1 7 2 3.</_></rects>
      <tilted>0</tilted></_>
    <_>
      <rects>
        <_>
          37 28 26 20 -1.</_>
        <_>
          37 38 26 10 2.</_></rects>
      <tilted>0</tilted></_>
    <_>
      <rects>
        <_>
          40 30 24 18 -1.</_>
        <_>
          52 30 12 18 2.</_></rects>
      <tilted>0</tilted></_>
    <_>
      <rects>
        <_>
          43 0 9 1 -1.</_>
        <_>
          46 0 3 1 3.</_></rects>
      <tilted>0</tilted></_>
    <_>
      <rects>
        <_>
          45 45 6 1 -1.</_>
        <_>
          48 45 3 1 2.</_></rects>
      <tilted>0</tilted></_>
    <_>
      <rects>
        <_>
          51 2 12 4 -1.</_>
        <_>
          55 2 4 4 3.</_></rects>
      <tilted>0</tilted></_>
    <_>
      <rects>
        <_>
          52 44 9 3 -1.</_>
        <_>
          55 44 3 3 3.</_></rects>
      <tilted>0</tilted></_>
    <_>
      <rects>
        <_>
          54 2 10 20 -1.</_>
        <_>
          54 12 10 10 2.</_></rects>
      <tilted>0</tilted></_>
    <_>
      <rects>
        <_>
          56 1 4 18 -1.</_>
        <_>
          58 1 2 18 2.</_></rects>
      <tilted>0</tilted></_>
    <_>
      <rects>
        <_>
          58 3 3 6 -1.</_>
        <_>
          58 5 3 2 3.</_></rects>
      <tilted>0</tilted></_>
    <_>
      <rects>
        <_>
          63 0 1 22 -1.</_>
        <_>
          63 11 1 11 2.</_></rects>
      <tilted>0</tilted></_></features></cascade>
</opencv_storage>
