<?xml version="1.0"?>
<opencv_storage>
<cascade>
  <stageType>BOOST</stageType>
  <featureType>HAAR</featureType>
  <height>48</height>
  <width>64</width>
  <stageParams>
    <boostType>GAB</boostType>
    <minHitRate>9.9500000476837158e-01</minHitRate>
    <maxFalseAlarm>5.0000000000000000e-01</maxFalseAlarm>
    <weightTrimRate>9.4999999999999996e-01</weightTrimRate>
    <maxDepth>1</maxDepth>
    <maxWeakCount>100</maxWeakCount></stageParams>
  <featureParams>
    <maxCatCount>0</maxCatCount>
    <featSize>1</featSize>
    <mode>BASIC</mode></featureParams>
  <stageNum>15</stageNum>
  <stages>
    <!-- stage 0 -->
    <_>
      <maxWeakCount>2</maxWeakCount>
      <stageThreshold>-2.0893904566764832e-01</stageThreshold>
      <weakClassifiers>
        <_>
          <internalNodes>
            0 -1 0 -2.6123940944671631e-01</internalNodes>
          <leafValues>
            8.8505744934082031e-01 -6.3461536169052124e-01</leafValues></_>
        <_>
          <internalNodes>
            0 -1 6 -1.5851190937610227e-06</internalNodes>
          <leafValues>
            -9.7956973314285278e-01 4.2567634582519531e-01</leafValues></_></weakClassifiers></_>
    <!-- stage 1 -->
    <_>
      <maxWeakCount>4</maxWeakCount>
      <stageThreshold>-8.6197024583816528e-01</stageThreshold>
      <weakClassifiers>
        <_>
          <internalNodes>
            0 -1 4 -4.2390361428260803e-02</internalNodes>
          <leafValues>
            7.1428573131561279e-01 -7.9545456171035767e-01</leafValues></_>
        <_>
          <internalNodes>
            0 -1 48 4.4980646634940058e-05</internalNodes>
          <leafValues>
            6.1641663312911987e-01 -8.0624800920486450e-01</leafValues></_>
        <_>
          <internalNodes>
            0 -1 38 6.2540048020309769e-06</internalNodes>
          <leafValues>
            4.1247910261154175e-01 -1.</leafValues></_>
        <_>
          <internalNodes>
            0 -1 43 1.3173775187169667e-05</internalNodes>
          <leafValues>
            3.2725316286087036e-01 -1.</leafValues></_></weakClassifiers></_>
    <!-- stage 2 -->
    <_>
      <maxWeakCount>3</maxWeakCount>
      <stageThreshold>-9.6913427114486694e-02</stageThreshold>
      <weakClassifiers>
        <_>
          <internalNodes>
            0 -1 6 2.2028620151104406e-05</internalNodes>
          <leafValues>
            5.9349590539932251e-01 -7.4418604373931885e-01</leafValues></_>
        <_>
          <internalNodes>
            0 -1 42 -1.5529865777352825e-05</internalNodes>
          <leafValues>
            -1. 3.3624407649040222e-01</leafValues></_>
        <_>
          <internalNodes>
            0 -1 13 -3.2422653021058068e-05</internalNodes>
          <leafValues>
            -9.5297068357467651e-01 3.1102854013442993e-01</leafValues></_></weakClassifiers></_>
    <!-- stage 3 -->
    <_>
      <maxWeakCount>4</maxWeakCount>
      <stageThreshold>-8.3963811397552490e-01</stageThreshold>
      <weakClassifiers>
        <_>
          <internalNodes>
            0 -1 42 1.2036710359097924e-05</internalNodes>
          <leafValues>
            5.1495015621185303e-01 -9.1695499420166016e-01</leafValues></_>
        <_>
          <internalNodes>
            0 -1 14 4.9837717597256415e-06</internalNodes>
          <leafValues>
            5.6949555873870850e-01 -6.6107481718063354e-01</leafValues></_>
        <_>
          <internalNodes>
            0 -1 49 -3.6584385725291213e-06</internalNodes>
          <leafValues>
            -1. 3.7026482820510864e-01</leafValues></_>
        <_>
          <internalNodes>
            0 -1 44 2.4411263439105824e-05</internalNodes>
          <leafValues>
            3.6812695860862732e-01 -9.7640144824981689e-01</leafValues></_></weakClassifiers></_>
    <!-- stage 4 -->
    <_>
      <maxWeakCount>4</maxWeakCount>
      <stageThreshold>-6.5834897756576538e-01</stageThreshold>
      <weakClassifiers>
        <_>
          <internalNodes>
            0 -1 29 9.9121659994125366e-02</internalNodes>
          <leafValues>
            -6.2694299221038818e-01 6.4705884456634521e-01</leafValues></_>
        <_>
          <internalNodes>
            0 -1 46 5.6444865185767412e-04</internalNodes>
          <leafValues>
            2.3351503908634186e-01 -1.</leafValues></_>
        <_>
          <internalNodes>
            0 -1 20 1.3819016749039292e-04</internalNodes>
          <leafValues>
            -5.5884635448455811e-01 4.3722486495971680e-01</leafValues></_>
        <_>
          <internalNodes>
            0 -1 9 -1.7108657630160451e-05</internalNodes>
          <leafValues>
            -1. 2.9392534494400024e-01</leafValues></_></weakClassifiers></_>
    <!-- stage 5 -->
    <_>
      <maxWeakCount>3</maxWeakCount>
      <stageThreshold>-5.1546204090118408e-01</stageThreshold>
      <weakClassifiers>
        <_>
          <internalNodes>
            0 -1 12 -4.6271979808807373e-03</internalNodes>
          <leafValues>
            4.8616600036621094e-01 -6.9139468669891357e-01</leafValues></_>
        <_>
          <internalNodes>
            0 -1 18 2.7780106756836176e-03</internalNodes>
          <leafValues>
            -5.4047387838363647e-01 5.4830598831176758e-01</leafValues></_>
        <_>
          <internalNodes>
            0 -1 11 -4.4817931950092316e-02</internalNodes>
          <leafValues>
            7.2910887002944946e-01 -3.7237334251403809e-01</leafValues></_></weakClassifiers></_>
    <!-- stage 6 -->
    <_>
      <maxWeakCount>3</maxWeakCount>
      <stageThreshold>-4.9840688705444336e-01</stageThreshold>
      <weakClassifiers>
        <_>
          <internalNodes>
            0 -1 47 -3.0301196147775045e-06</internalNodes>
          <leafValues>
            -8.7450981140136719e-01 3.3731344342231750e-01</leafValues></_>
        <_>
          <internalNodes>
            0 -1 7 4.8408313887193799e-05</internalNodes>
          <leafValues>
            1.8451637029647827e-01 -1.</leafValues></_>
        <_>
          <internalNodes>
            0 -1 15 1.0278907211613841e-05</internalNodes>
          <leafValues>
            1.9158653914928436e-01 -1.</leafValues></_></weakClassifiers></_>
    <!-- stage 7 -->
    <_>
      <maxWeakCount>3</maxWeakCount>
      <stageThreshold>-1.9574615359306335e-01</stageThreshold>
      <weakClassifiers>
        <_>
          <internalNodes>
            0 -1 40 1.6048103134380654e-05</internalNodes>
          <leafValues>
            1.0739856958389282e-01 -9.0643274784088135e-01</leafValues></_>
        <_>
          <internalNodes>
            0 -1 27 3.5852103610523045e-04</internalNodes>
          <leafValues>
            -4.8812082409858704e-01 4.7250860929489136e-01</leafValues></_>
        <_>
          <internalNodes>
            0 -1 45 -2.2010158318153117e-06</internalNodes>
          <leafValues>
            -1. 2.3817799985408783e-01</leafValues></_></weakClassifiers></_>
    <!-- stage 8 -->
    <_>
      <maxWeakCount>4</maxWeakCount>
      <stageThreshold>-4.3434292078018188e-01</stageThreshold>
      <weakClassifiers>
        <_>
          <internalNodes>
            0 -1 2 -4.3466985225677490e-01</internalNodes>
          <leafValues>
            7.8461539745330811e-01 -4.6086955070495605e-01</leafValues></_>
        <_>
          <internalNodes>
            0 -1 16 4.6667599235661328e-05</internalNodes>
          <leafValues>
            2.8284153342247009e-01 -9.7398746013641357e-01</leafValues></_>
        <_>
          <internalNodes>
            0 -1 32 3.0676252208650112e-04</internalNodes>
          <leafValues>
            -5.3683161735534668e-01 5.6767511367797852e-01</leafValues></_>
        <_>
          <internalNodes>
            0 -1 3 -2.4813998606987298e-05</internalNodes>
          <leafValues>
            -8.2399004697799683e-01 3.4736931324005127e-01</leafValues></_></weakClassifiers></_>
    <!-- stage 9 -->
    <_>
      <maxWeakCount>4</maxWeakCount>
      <stageThreshold>-8.5475958883762360e-02</stageThreshold>
      <weakClassifiers>
        <_>
          <internalNodes>
            0 -1 21 -5.8515365235507488e-03</internalNodes>
          <leafValues>
            6.8345326185226440e-01 -4.5454546809196472e-01</leafValues></_>
        <_>
          <internalNodes>
            0 -1 39 -5.0024979282170534e-04</internalNodes>
          <leafValues>
            -7.4981588125228882e-01 3.5541665554046631e-01</leafValues></_>
        <_>
          <internalNodes>
            0 -1 33 2.8447113891161280e-06</internalNodes>
          <leafValues>
            -4.9788305163383484e-01 6.3069176673889160e-01</leafValues></_>
        <_>
          <internalNodes>
            0 -1 36 9.3488451966550201e-06</internalNodes>
          <leafValues>
            -5.3961628675460815e-01 5.1153588294982910e-01</leafValues></_></weakClassifiers></_>
    <!-- stage 10 -->
    <_>
      <maxWeakCount>4</maxWeakCount>
      <stageThreshold>-4.0752660483121872e-02</stageThreshold>
      <weakClassifiers>
        <_>
          <internalNodes>
            0 -1 34 2.0627905614674091e-03</internalNodes>
          <leafValues>
            -4.5114344358444214e-01 9.8165136575698853e-01</leafValues></_>
        <_>
          <internalNodes>
            0 -1 5 -4.5716428758169059e-06</internalNodes>
          <leafValues>
            -8.9831572771072388e-01 3.7792998552322388e-01</leafValues></_>
        <_>
          <internalNodes>
            0 -1 1 -3.3525228500366211e-02</internalNodes>
          <leafValues>
            5.0625032186508179e-01 -6.5918707847595215e-01</leafValues></_>
        <_>
          <internalNodes>
            0 -1 35 -4.6744225983275101e-06</internalNodes>
          <leafValues>
            8.1067550182342529e-01 -4.7378948330879211e-01</leafValues></_></weakClassifiers></_>
    <!-- stage 11 -->
    <_>
      <maxWeakCount>3</maxWeakCount>
      <stageThreshold>-8.2494290545582771e-03</stageThreshold>
      <weakClassifiers>
        <_>
          <internalNodes>
            0 -1 41 4.5149658944865223e-06</internalNodes>
          <leafValues>
            1.9796954095363617e-01 -9.5918369293212891e-01</leafValues></_>
        <_>
          <internalNodes>
            0 -1 26 1.2466192129068077e-04</internalNodes>
          <leafValues>
            -5.2362316846847534e-01 7.6373720169067383e-01</leafValues></_>
        <_>
          <internalNodes>
            0 -1 8 1.3665365258930251e-05</internalNodes>
          <leafValues>
            3.8585412502288818e-01 -9.6995615959167480e-01</leafValues></_></weakClassifiers></_>
    <!-- stage 12 -->
    <_>
      <maxWeakCount>4</maxWeakCount>
      <stageThreshold>-8.3898818492889404e-01</stageThreshold>
      <weakClassifiers>
        <_>
          <internalNodes>
            0 -1 30 1.1814370751380920e-01</internalNodes>
          <leafValues>
            -5.5662649869918823e-01 6.9142854213714600e-01</leafValues></_>
        <_>
          <internalNodes>
            0 -1 31 -5.7331231801072136e-05</internalNodes>
          <leafValues>
            8.8940626382827759e-01 -3.6651426553726196e-01</leafValues></_>
        <_>
          <internalNodes>
            0 -1 22 1.4637834101449698e-04</internalNodes>
          <leafValues>
            -3.9255198836326599e-01 8.6231458187103271e-01</leafValues></_>
        <_>
          <internalNodes>
            0 -1 10 -2.5110236947512021e-06</internalNodes>
          <leafValues>
            -7.7135050296783447e-01 5.6851845979690552e-01</leafValues></_></weakClassifiers></_>
    <!-- stage 13 -->
    <_>
      <maxWeakCount>4</maxWeakCount>
      <stageThreshold>-7.9131108522415161e-01</stageThreshold>
      <weakClassifiers>
        <_>
          <internalNodes>
            0 -1 28 1.8438965082168579e-01</internalNodes>
          <leafValues>
            -4.7008547186851501e-01 9.0163934230804443e-01</leafValues></_>
        <_>
          <internalNodes>
            0 -1 17 -2.8863255865871906e-03</internalNodes>
          <leafValues>
            -8.6728507280349731e-01 3.4038123488426208e-01</leafValues></_>
        <_>
          <internalNodes>
            0 -1 19 -5.6023006327450275e-03</internalNodes>
          <leafValues>
            -9.6318644285202026e-01 2.8343147039413452e-01</leafValues></_>
        <_>
          <internalNodes>
            0 -1 24 -6.9142468273639679e-03</internalNodes>
          <leafValues>
            -9.3748390674591064e-01 2.6262798905372620e-01</leafValues></_></weakClassifiers></_>
    <!-- stage 14 -->
    <_>
      <maxWeakCount>3</maxWeakCount>
      <stageThreshold>-1.2243492528796196e-02</stageThreshold>
      <weakClassifiers>
        <_>
          <internalNodes>
            0 -1 23 9.1112405061721802e-04</internalNodes>
          <leafValues>
            -5.7320100069046021e-01 6.4705884456634521e-01</leafValues></_>
        <_>
          <internalNodes>
            0 -1 25 9.6890883287414908e-04</internalNodes>
          <leafValues>
            3.0179330706596375e-01 -9.3194204568862915e-01</leafValues></_>
        <_>
          <internalNodes>
            0 -1 37 1.4500180259346962e-03</internalNodes>
          <leafValues>
            2.7263975143432617e-01 -8.2938736677169800e-01</leafValues></_></weakClassifiers></_></stages>
  <features>
    <_>
      <rects>
        <_>
          0 3 60 43 -1.</_>
        <_>
          20 3 20 43 3.</_></rects>
      <tilted>0</tilted></_>
    <_>
      <rects>
        <_>
          0 4 34 24 -1.</_>
        <_>
          17 4 17 24 2.</_></rects>
      <tilted>0</tilted></_>
    <_>
      <rects>
        <_>
          0 6 60 42 -1.</_>
        <_>
          20 6 20 42 3.</_></rects>
      <tilted>0</tilted></_>
    <_>
      <rects>
        <_>
          0 10 2 36 -1.</_>
        <_>
          0 22 2 12 3.</_></rects>
      <tilted>0</tilted></_>
    <_>
      <rects>
        <_>
          0 20 36 26 -1.</_>
        <_>
          18 20 18 26 2.</_></rects>
      <tilted>0</tilted></_>
    <_>
      <rects>
        <_>
          0 26 2 22 -1.</_>
        <_>
          0 37 2 11 2.</_></rects>
      <tilted>0</tilted></_>
    <_>
      <rects>
        <_>
          0 32 2 8 -1.</_>
        <_>
          0 36 2 4 2.</_></rects>
      <tilted>0</tilted></_>
    <_>
      <rects>
        <_>
          1 0 9 8 -1.</_>
        <_>
          4 0 3 8 3.</_></rects>
      <tilted>0</tilted></_>
    <_>
      <rects>
        <_>
          1 31 10 3 -1.</_>
        <_>
          1 32 10 1 3.</_></rects>
      <tilted>0</tilted></_>
    <_>
      <rects>
        <_>
          3 12 9 9 -1.</_>
        <_>
          3 15 9 3 3.</_></rects>
      <tilted>0</tilted></_>
    <_>
      <rects>
        <_>
          4 47 20 1 -1.</_>
        <_>
          14 47 10 1 2.</_></rects>
      <tilted>0</tilted></_>
    <_>
      <rects>
        <_>
          6 14 34 32 -1.</_>
        <_>
          6 14 17 16 2.</_>
        <_>
          23 30 17 16 2.</_></rects>
      <tilted>0</tilted></_>
    <_>
      <rects>
        <_>
          7 27 42 4 -1.</_>
        <_>
          21 27 14 4 3.</_></rects>
      <tilted>0</tilted></_>
    <_>
      <rects>
        <_>
          7 38 3 4 -1.</_>
        <_>
          7 40 3 2 2.</_></rects>
      <tilted>0</tilted></_>
    <_>
      <rects>
        <_>
          7 38 4 4 -1.</_>
        <_>
          7 40 4 2 2.</_></rects>
      <tilted>0</tilted></_>
    <_>
      <rects>
        <_>
          8 44 4 3 -1.</_>
        <_>
          8 45 4 1 3.</_></rects>
      <tilted>0</tilted></_>
    <_>
      <rects>
        <_>
          10 39 2 9 -1.</_>
        <_>
          10 42 2 3 3.</_></rects>
      <tilted>0</tilted></_>
    <_>
      <rects>
        <_>
          13 47 26 1 -1.</_>
        <_>
          26 47 13 1 2.</_></rects>
      <tilted>0</tilted></_>
    <_>
      <rects>
        <_>
          18 27 18 11 -1.</_>
        <_>
          24 27 6 11 3.</_></rects>
      <tilted>0</tilted></_>
    <_>
      <rects>
        <_>
          21 25 9 12 -1.</_>
        <_>
          21 29 9 4 3.</_></rects>
      <tilted>0</tilted></_>
    <_>
      <rects>
        <_>
          21 26 12 7 -1.</_>
        <_>
          25 26 4 7 3.</_></rects>
      <tilted>0</tilted></_>
    <_>
      <rects>
        <_>
          24 39 17 9 -1.</_>
        <_>
          24 42 17 3 3.</_></rects>
      <tilted>0</tilted></_>
    <_>
      <rects>
        <_>
          26 1 2 29 -1.</_>
        <_>
          27 1 1 29 2.</_></rects>
      <tilted>0</tilted></_>
    <_>
      <rects>
        <_>
          26 6 2 30 -1.</_>
        <_>
          26 16 2 10 3.</_></rects>
      <tilted>0</tilted></_>
    <_>
      <rects>
        <_>
          26 19 12 16 -1.</_>
        <_>
          26 19 6 8 2.</_>
        <_>
          32 27 6 8 2.</_></rects>
      <tilted>0</tilted></_>
    <_>
      <rects>
        <_>
          28 15 8 8 -1.</_>
        <_>
          28 15 4 4 2.</_>
        <_>
          32 19 4 4 2.</_></rects>
      <tilted>0</tilted></_>
    <_>
      <rects>
        <_>
          28 17 15 1 -1.</_>
        <_>
          33 17 5 1 3.</_></rects>
      <tilted>0</tilted></_>
    <_>
      <rects>
        <_>
          29 18 18 4 -1.</_>
        <_>
          35 18 6 4 3.</_></rects>
      <tilted>0</tilted></_>
    <_>
      <rects>
        <_>
          30 0 32 47 -1.</_>
        <_>
          46 0 16 47 2.</_></rects>
      <tilted>0</tilted></_>
    <_>
      <rects>
        <_>
          30 2 34 45 -1.</_>
        <_>
          47 2 17 45 2.</_></rects>
      <tilted>0</tilted></_>
    <_>
      <rects>
        <_>
          30 7 34 41 -1.</_>
        <_>
          47 7 17 41 2.</_></rects>
      <tilted>0</tilted></_>
    <_>
      <rects>
        <_>
          30 24 2 4 -1.</_>
        <_>
          30 26 2 2 2.</_></rects>
      <tilted>0</tilted></_>
    <_>
      <rects>
        <_>
          31 8 2 18 -1.</_>
        <_>
          31 14 2 6 3.</_></rects>
      <tilted>0</tilted></_>
    <_>
      <rects>
        <_>
          31 11 2 6 -1.</_>
        <_>
          31 13 2 2 3.</_></rects>
      <tilted>0</tilted></_>
    <_>
      <rects>
        <_>
          31 35 3 12 -1.</_>
        <_>
          31 39 3 4 3.</_></rects>
      <tilted>0</tilted></_>
    <_>
      <rects>
        <_>
          32 4 3 15 -1.</_>
        <_>
          33 4 1 15 3.</_></rects>
      <tilted>0</tilted></_>
    <_>
      <rects>
        <_>
          37 15 9 17 -1.</_>
        <_>
          40 15 3 17 3.</_></rects>
      <tilted>0</tilted></_>
    <_>
      <rects>
        <_>
          39 32 6 16 -1.</_>
        <_>
          39 32 3 8 2.</_>
        <_>
          42 40 3 8 2.</_></rects>
      <tilted>0</tilted></_>
    <_>
      <rects>
        <_>
          52 1 8 3 -1.</_>
        <_>
          56 1 4 3 2.</_></rects>
      <tilted>0</tilted></_>
    <_>
      <rects>
        <_>
          52 20 11 28 -1.</_>
        <_>
          52 34 11 14 2.</_></rects>
      <tilted>0</tilted></_>
    <_>
      <rects>
        <_>
          52 32 6 7 -1.</_>
        <_>
          55 32 3 7 2.</_></rects>
      <tilted>0</tilted></_>
    <_>
      <rects>
        <_>
          54 1 9 16 -1.</_>
        <_>
          57 1 3 16 3.</_></rects>
      <tilted>0</tilted></_>
    <_>
      <rects>
        <_>
          55 1 6 3 -1.</_>
        <_>
          57 1 2 3 3.</_></rects>
      <tilted>0</tilted></_>
    <_>
      <rects>
        <_>
          57 13 2 9 -1.</_>
        <_>
          57 16 2 3 3.</_></rects>
      <tilted>0</tilted></_>
    <_>
      <rects>
        <_>
          57 28 4 6 -1.</_>
        <_>
          57 28 2 3 2.</_>
        <_>
          59 31 2 3 2.</_></rects>
      <tilted>0</tilted></_>
    <_>
      <rects>
        <_>
          62 11 1 27 -1.</_>
        <_>
          62 20 1 9 3.</_></rects>
      <tilted>0</tilted></_>
    <_>
      <rects>
        <_>
          63 8 1 39 -1.</_>
        <_>
          63 21 1 13 3.</_></rects>
      <tilted>0</tilted></_>
    <_>
      <rects>
        <_>
          63 9 1 36 -1.</_>
        <_>
          63 21 1 12 3.</_></rects>
      <tilted>0</tilted></_>
    <_>
      <rects>
        <_>
          63 9 1 36 -1.</_>
        <_>
          63 27 1 18 2.</_></rects>
      <tilted>0</tilted></_>
    <_>
      <rects>
        <_>
          63 15 1 9 -1.</_>
        <_>
          63 18 1 3 3.</_></rects>
      <tilted>0</tilted></_></features></cascade>
</opencv_storage>
