
\data\
ngram 1=7
ngram 2=8
ngram 3=0

\1-grams:
-0.544068	</s>
-99	<s>	-0.05799192
-0.845098	ES	-0.1549019
-0.845098	MI	-0.2340832
-0.845098	NOMBRE	-0.2340832
-0.845098	PARA	-0.1549019
-0.845098	SIGUEME	-0.1549019

\2-grams:
-0.7781513	<s> MI
-0.7781513	<s> PARA
-0.7781513	<s> SIGUEME
-0.30103	ES </s>
-0.30103	MI NOMBRE
-0.30103	NOMBRE ES
-0.30103	PARA </s>
-0.30103	SIGUEME </s>

\3-grams:

\end\
