
\data\
ngram 1=8
ngram 2=10
ngram 3=0

\1-grams:
-0.5314789	</s>
-99	<s>	-0.02482358
-0.9294189	HOLA	-0.2466723
-0.9294189	LLAMO	-0.1497623
-0.9294189	ME	-0.2466723
-0.9294189	PARA	-0.1497623
-0.9294189	SIGUEME	-0.1497623
-0.9294189	TEO	-0.1497623

\2-grams:
-0.90309	<s> HOLA
-0.90309	<s> ME
-0.90309	<s> PARA
-0.90309	<s> SIGUEME
-0.30103	HOLA TEO
-0.30103	LLAMO </s>
-0.30103	ME LLAMO
-0.30103	PARA </s>
-0.30103	SIGUEME </s>
-0.30103	TEO </s>

\3-grams:

\end\
