Language model created by QuickLM on Wed Nov  2 11:20:49 EDT 2016
Copyright (c) 1996-2010 Carnegie Mellon University and Alexander I. Rudnicky

The model is in standard ARPA format, designed by Doug Paul while he was at MITRE.

The code that was used to produce this language model is available in Open Source.
Please visit http://www.speech.cs.cmu.edu/tools/ for more information

The (fixed) discount mass is 0.5. The backoffs are computed using the ratio method.
This model based on a corpus of 4 sentences and 6 words

\data\
ngram 1=6
ngram 2=8
ngram 3=4

\1-grams:
-0.7782 </s> -0.3010
-0.7782 <s> -0.2218
-1.3802 EXIT -0.2218
-1.3802 FOOD -0.2218
-1.3802 HI -0.2218
-1.3802 PEOPLE -0.2218

\2-grams:
-0.9031 <s> EXIT 0.0000
-0.9031 <s> FOOD 0.0000
-0.9031 <s> HI 0.0000
-0.9031 <s> PEOPLE 0.0000
-0.3010 EXIT </s> -0.3010
-0.3010 FOOD </s> -0.3010
-0.3010 HI </s> -0.3010
-0.3010 PEOPLE </s> -0.3010

\3-grams:
-0.3010 <s> EXIT </s>
-0.3010 <s> FOOD </s>
-0.3010 <s> HI </s>
-0.3010 <s> PEOPLE </s>

\end\
